{"learner":{"attributes":{"niter":"106"},"feature_names":[],"feature_types":[],"gradient_booster":{"model":{"gbtree_model_param":{"num_parallel_tree":"1","num_trees":"107","size_leaf_vector":"0"},"tree_info":[0,0,0,0,0,0,0,0,0,0,0,0,0,0,0,0,0,0,0,0,0,0,0,0,0,0,0,0,0,0,0,0,0,0,0,0,0,0,0,0,0,0,0,0,0,0,0,0,0,0,0,0,0,0,0,0,0,0,0,0,0,0,0,0,0,0,0,0,0,0,0,0,0,0,0,0,0,0,0,0,0,0,0,0,0,0,0,0,0,0,0,0,0,0,0,0,0,0,0,0,0,0,0,0,0,0,0],"trees":[{"base_weights":[6.4553305E4,3.4997516E4,2.7602178E5,1.2816831E4,8.887453E4,2.4938752E5,8.5307394E5,4.0529387E3,3.2514273E4,7.015163E4,1.2240374E5,1.9930964E5,3.4187234E5,6.162674E5,1.1119444E6,-2.3975842E5,4.5865215E3,3.1453713E4,3.4653062E5,5.994699E4,8.3504234E4,1.0081791E5,1.2820723E5,1.822467E5,2.3180406E5,3.035854E5,4.400545E5,1.7002307E3,1.3003122E4,2.1961127E4,3.7730348E4,1.5983333E4,6.6908625E5,5.51928E4,7.226676E4,8.2661805E4,2.3129975E5,1.24725516E5,1.5175242E5,1.6825062E5,1.9111177E5,-2.3398508E4,2.6317869E3,1.2569705E4,3.328082E4,2.0529979E4,2.8378912E4,1.441766E5,3.6945277E4,5.0798473E4,6.3631125E4,1.4602392E5,6.900847E4,7.59567E4,8.951126E4,1.21133336E5,1.4989255E5],"categories":[],"categories_nodes":[],"categories_segments":[],"categories_sizes":[],"default_left":[1,1,1,1,1,1,1,1,1,1,1,1,1,0,0,0,1,1,1,1,1,0,1,1,0,0,0,1,1,1,1,0,0,1,1,1,0,1,0,0,0,0,0,0,0,0,0,0,0,0,0,0,0,0,0,0,0],"id":0,"left_children":[1,3,5,7,9,11,13,15,17,19,21,23,25,-1,-1,-1,27,29,31,33,35,-1,37,39,-1,-1,-1,41,43,45,47,-1,-1,49,51,53,-1,55,-1,-1,-1,-1,-1,-1,-1,-1,-1,-1,-1,-1,-1,-1,-1,-1,-1,-1,-1],"loss_changes":[3.9753592E13,6.6707086E12,1.1775357E13,6.827777E11,1.01341305E12,3.3915478E12,1.3990206E12,3.5742584E11,3.9473447E11,1.3765706E11,5.998274E10,2.2777378E11,8.475304E11,0E0,0E0,0E0,6.6394292E10,7.156295E10,4.1578532E11,3.097808E10,3.7033345E10,0E0,1.8372624E10,8.0457236E9,0E0,0E0,0E0,4.7688438E10,5.716181E9,3.8812058E9,5.567788E10,0E0,0E0,1.2897616E10,2.9095625E10,1.3867942E10,0E0,1.8185978E10,0E0,0E0,0E0,0E0,0E0,0E0,0E0,0E0,0E0,0E0,0E0,0E0,0E0,0E0,0E0,0E0,0E0,0E0,0E0],"parents":[2147483647,0,0,1,1,2,2,3,3,4,4,5,5,6,6,7,7,8,8,9,9,10,10,11,11,12,12,16,16,17,17,18,18,19,19,20,20,22,22,23,23,27,27,28,28,29,29,30,30,33,33,34,34,35,35,37,37],"right_children":[2,4,6,8,10,12,14,16,18,20,22,24,26,-1,-1,-1,28,30,32,34,36,-1,38,40,-1,-1,-1,42,44,46,48,-1,-1,50,52,54,-1,56,-1,-1,-1,-1,-1,-1,-1,-1,-1,-1,-1,-1,-1,-1,-1,-1,-1,-1,-1],"split_conditions":[1.31967E5,3.82365E4,4.71063E5,1.02995E4,8.40695E4,2.23749E5,5.5375E5,-2.15928E5,1.25628E5,6.0399E4,9.27495E4,1.830995E5,3.249995E5,3.081337E4,5.559722E4,-1.1987921E4,2.399E3,1.99555E4,1.951E4,1.3115E4,2.76E5,5.0408955E3,7.04E4,1.512355E5,1.1590203E4,1.51792705E4,2.2002725E4,-1.765E4,6.5E0,5E-1,-1.9625E4,7.991667E2,3.3454312E4,5.065E4,1.3859E4,7.075E4,1.1564987E4,1.175E5,7.587621E3,8.412531E3,9.555589E3,-1.1699254E3,1.3158934E2,6.284853E2,1.664041E3,1.0264989E3,1.4189457E3,7.2088296E3,1.8472639E3,2.5399236E3,3.1815564E3,7.3011963E3,3.4504236E3,3.7978352E3,4.475563E3,6.056667E3,7.4946274E3],"split_indices":[9,9,9,9,9,9,5,8,11,9,9,9,9,0,0,0,9,9,7,29,2,0,29,9,0,0,0,9,12,21,8,0,0,9,7,9,0,3,0,0,0,0,0,0,0,0,0,0,0,0,0,0,0,0,0,0,0],"split_type":[0,0,0,0,0,0,0,0,0,0,0,0,0,0,0,0,0,0,0,0,0,0,0,0,0,0,0,0,0,0,0,0,0,0,0,0,0,0,0,0,0,0,0,0,0,0,0,0,0,0,0,0,0,0,0,0,0],"sum_hessian":[6.361E3,5.582E3,7.79E2,3.955E3,1.627E3,7.46E2,3.3E1,2.738E3,1.217E3,1.046E3,5.81E2,4.86E2,2.6E2,1.9E1,1.4E1,5E0,2.733E3,1.214E3,3E0,5.96E2,4.5E2,1.27E2,4.54E2,3.23E2,1.63E2,1.9E2,7E1,2.036E3,6.97E2,4.85E2,7.29E2,2E0,1E0,4.34E2,1.62E2,4.49E2,1E0,4.01E2,5.3E1,1.33E2,1.9E2,7.2E1,1.964E3,6.84E2,1.3E1,4E2,8.5E1,4E0,7.25E2,2.9E2,1.44E2,5E0,1.57E2,2.33E2,2.16E2,3.56E2,4.5E1],"tree_param":{"num_deleted":"0","num_feature":"43","num_nodes":"57","size_leaf_vector":"0"}},{"base_weights":[6.214937E4,3.380997E4,2.7172534E5,1.2319264E4,8.4589266E4,2.4555573E5,9.6436394E5,1.1811032E4,9.982276E5,6.926835E4,1.197501E5,2.1583917E5,4.1151503E5,6.593532E5,1.0802386E6,4.2142188E3,3.1570072E4,5.8396E4,8.193831E4,1.1037507E5,1.2839531E5,1.8151158E5,2.5342464E5,3.5527884E5,4.7558022E5,-1.8538466E5,4.616697E3,3.040549E4,3.3840572E5,5.5662625E4,7.484826E4,8.1240586E4,2.2551725E5,1.0494942E5,1.343586E5,1.6352377E5,1.9352642E5,2.2835703E5,2.74405E5,3.5762472E5,5.0917444E5,1.6378309E3,1.1754657E4,2.3814955E4,3.703759E4,1.6301555E4,6.523591E5,5.0894527E4,6.1847176E4,1.5549506E5,6.340259E4,7.237189E4,8.727243E4,1.8001406E5,1.1009594E5,2.7351538E5,1.8610623E5,2.8610106E5,2.2012867E5],"categories":[],"categories_nodes":[],"categories_segments":[],"categories_sizes":[],"default_left":[1,1,1,1,1,1,1,1,0,1,1,1,1,0,0,1,1,1,1,1,0,1,1,0,1,0,1,1,1,1,1,1,0,0,1,0,1,1,0,0,0,0,0,0,0,0,0,0,0,0,0,0,0,0,0,0,0,0,0],"id":1,"left_children":[1,3,5,7,9,11,13,15,-1,17,19,21,23,-1,-1,25,27,29,31,33,-1,35,37,-1,39,-1,41,43,45,47,49,51,-1,-1,53,-1,55,57,-1,-1,-1,-1,-1,-1,-1,-1,-1,-1,-1,-1,-1,-1,-1,-1,-1,-1,-1,-1,-1],"loss_changes":[3.7443777E13,6.062126E12,1.3375879E13,1.9448872E12,8.8163117E11,3.4866872E12,2.4200505E11,5.858797E11,0E0,1.5404368E11,2.6353336E10,7.500674E11,2.2374095E11,0E0,0E0,2.1612482E11,3.770619E11,2.389508E10,3.47734E10,1.8039964E10,0E0,3.8808846E10,9.090944E10,0E0,8.1128325E9,0E0,5.9857424E10,4.6367506E10,3.9386838E11,1.2746752E10,6.952403E10,2.1982347E10,0E0,0E0,2.6705527E10,0E0,6.186808E10,3.065512E9,0E0,0E0,0E0,0E0,0E0,0E0,0E0,0E0,0E0,0E0,0E0,0E0,0E0,0E0,0E0,0E0,0E0,0E0,0E0,0E0,0E0],"parents":[2147483647,0,0,1,1,2,2,3,3,4,4,5,5,6,6,7,7,9,9,10,10,11,11,12,12,15,15,16,16,17,17,18,18,19,19,21,21,22,22,24,24,26,26,27,27,28,28,29,29,30,30,31,31,34,34,36,36,37,37],"right_children":[2,4,6,8,10,12,14,16,-1,18,20,22,24,-1,-1,26,28,30,32,34,-1,36,38,-1,40,-1,42,44,46,48,50,52,-1,-1,54,-1,56,58,-1,-1,-1,-1,-1,-1,-1,-1,-1,-1,-1,-1,-1,-1,-1,-1,-1,-1,-1,-1,-1],"split_conditions":[1.345985E5,3.82365E4,5.8215E5,1.375E5,8.98975E4,3.031155E5,5.18666E5,1.2316E4,4.9911383E4,6.17245E4,1.09125E5,1.881E5,3.702525E5,3.296766E4,5.4011934E4,-2.24875E5,1.25628E5,2.50995E4,1.26E5,9.9E4,6.4197656E3,1.25E3,2.23749E5,1.7763943E4,1.57063E5,-9.269233E3,2.0395E3,2.3475E4,4.3865E3,4.9574E4,4.0625E4,7.1725E4,1.1275862E4,5.247471E3,9.44495E4,8.1761885E3,-1.755E2,6.25E4,1.372025E4,1.7881236E4,2.5458723E4,8.189155E1,5.8773285E2,1.1907478E3,1.8518795E3,8.1507776E2,3.2617957E4,2.5447263E3,3.092359E3,7.7747534E3,3.1701296E3,3.6185945E3,4.3636216E3,9.000703E3,5.504797E3,1.3675769E4,9.305312E3,1.4305054E4,1.1006434E4],"split_indices":[9,9,9,4,9,9,5,9,0,9,9,9,9,0,0,6,11,29,4,3,0,0,9,0,8,0,9,9,0,9,9,9,0,0,9,0,6,4,0,0,0,0,0,0,0,0,0,0,0,0,0,0,0,0,0,0,0,0,0],"split_type":[0,0,0,0,0,0,0,0,0,0,0,0,0,0,0,0,0,0,0,0,0,0,0,0,0,0,0,0,0,0,0,0,0,0,0,0,0,0,0,0,0,0,0,0,0,0,0,0,0,0,0,0,0,0,0,0,0,0,0],"sum_hessian":[6.305E3,5.555E3,7.5E2,3.904E3,1.651E3,7.24E2,2.6E1,3.903E3,1E0,1.152E3,4.99E2,6.16E2,1.08E2,9E0,1.7E1,2.82E3,1.083E3,6.23E2,5.29E2,2.46E2,2.53E2,3.25E2,2.91E2,6.1E1,4.7E1,5E0,2.815E3,1.08E3,3E0,5.38E2,8.5E1,5.28E2,1E0,2.05E2,4.1E1,1.36E2,1.89E2,1.38E2,1.53E2,1.3E1,3.4E1,1.987E3,8.28E2,5.44E2,5.36E2,2E0,1E0,3.09E2,2.29E2,9E0,7.6E1,2.19E2,3.09E2,1.2E1,2.9E1,1.3E1,1.76E2,1.3E1,1.25E2],"tree_param":{"num_deleted":"0","num_feature":"43","num_nodes":"59","size_leaf_vector":"0"}},{"base_weights":[5.9000508E4,3.1465688E4,2.5330575E5,1.154571E4,8.037096E4,2.262131E5,7.992962E5,1.105806E4,9.732719E5,6.505602E4,1.12893016E5,1.8276722E5,3.142949E5,5.975747E5,1.0553161E6,3.294792E3,2.850048E4,5.5874062E4,7.699478E4,9.301108E4,1.1627439E5,1.686745E5,2.1896538E5,2.786548E5,3.97545E5,-1.9205802E5,3.7924844E3,2.1384006E4,3.6819855E4,4.9436223E4,6.219472E4,7.623107E4,2.1987933E5,1.1212288E5,1.3339898E5,1.6347306E5,1.9282405E5,3.0071903E5,2.0814381E5,-9.932877E3,5.25322E3,1.0443164E5,2.1099947E4,3.378413E5,3.459999E4,4.5159367E4,5.6784816E4,1.5105119E5,6.1134188E4,6.808597E4,8.18074E4,9.763641E4,1.1735935E5,1.7505983E5,1.22702695E5,1.6066573E5,2.1155214E5,1.6122175E5,2.1718678E5],"categories":[],"categories_nodes":[],"categories_segments":[],"categories_sizes":[],"default_left":[1,1,1,1,1,1,1,1,0,1,1,1,1,0,0,1,1,1,1,0,1,1,1,0,0,0,1,1,1,1,1,1,0,1,1,1,1,0,0,0,0,0,0,0,0,0,0,0,0,0,0,0,0,0,0,0,0,0,0],"id":2,"left_children":[1,3,5,7,9,11,13,15,-1,17,19,21,23,-1,-1,25,27,29,31,-1,33,35,37,-1,-1,-1,39,41,43,45,47,49,-1,51,53,55,57,-1,-1,-1,-1,-1,-1,-1,-1,-1,-1,-1,-1,-1,-1,-1,-1,-1,-1,-1,-1,-1,-1],"loss_changes":[3.4093952E13,5.4389595E12,1.1519916E13,1.8506446E12,7.975427E11,2.8317843E12,1.2802253E12,5.3721367E11,0E0,1.1639089E11,2.3875027E10,2.2221213E11,6.2504776E11,0E0,0E0,2.678071E11,7.156079E10,2.2398239E10,3.518051E10,0E0,1.6110322E10,1.4954791E10,6.0380676E10,0E0,0E0,0E0,5.500683E10,1.3389758E10,3.6385463E11,7.3357066E9,2.016687E10,1.6004678E10,0E0,1.5698756E10,1.4169014E10,7.9875277E9,1.1179655E10,0E0,0E0,0E0,0E0,0E0,0E0,0E0,0E0,0E0,0E0,0E0,0E0,0E0,0E0,0E0,0E0,0E0,0E0,0E0,0E0,0E0,0E0],"parents":[2147483647,0,0,1,1,2,2,3,3,4,4,5,5,6,6,7,7,9,9,10,10,11,11,12,12,15,15,16,16,17,17,18,18,20,20,21,21,22,22,26,26,27,27,28,28,29,29,30,30,31,31,33,33,34,34,35,35,36,36],"right_children":[2,4,6,8,10,12,14,16,-1,18,20,22,24,-1,-1,26,28,30,32,-1,34,36,38,-1,-1,-1,40,42,44,46,48,50,-1,52,54,56,58,-1,-1,-1,-1,-1,-1,-1,-1,-1,-1,-1,-1,-1,-1,-1,-1,-1,-1,-1,-1,-1,-1],"split_conditions":[1.31967E5,3.82365E4,4.71063E5,2.875E5,8.74995E4,2.24025E5,5.5375E5,1.0077E4,4.8663594E4,6.17245E4,9.27495E4,1.882245E5,3.249995E5,2.9878734E4,5.276581E4,-2.24875E5,2.3169E4,1.671E3,2.76E5,4.650554E3,8.9E4,1.29E5,6.25E4,1.3932741E4,1.987725E4,-9.602901E3,-6.4575E3,1.009E4,2.31865E4,5.065E4,1.6995E3,7.07875E4,1.0993967E4,1.01784E5,9.6537E4,5.015E4,7.5E2,1.5035952E4,1.040719E4,-4.9664386E2,2.62661E2,5.221582E3,1.0549974E3,1.6892066E4,1.7299994E3,2.2579685E3,2.839241E3,7.5525596E3,3.0567095E3,3.4042986E3,4.0903699E3,4.8818203E3,5.867968E3,8.752991E3,6.135135E3,8.0332866E3,1.0577607E4,8.0610874E3,1.0859339E4],"split_indices":[9,9,9,2,9,9,5,9,0,9,9,9,9,0,0,6,9,6,2,0,3,3,4,0,0,0,9,9,9,9,6,9,0,9,9,0,0,0,0,0,0,0,0,0,0,0,0,0,0,0,0,0,0,0,0,0,0,0,0],"split_type":[0,0,0,0,0,0,0,0,0,0,0,0,0,0,0,0,0,0,0,0,0,0,0,0,0,0,0,0,0,0,0,0,0,0,0,0,0,0,0,0,0,0,0,0,0,0,0,0,0,0,0,0,0,0,0,0,0,0,0],"sum_hessian":[6.373E3,5.583E3,7.9E2,3.968E3,1.615E3,7.54E2,3.6E1,3.967E3,1E0,1.1E3,5.15E2,5.07E2,2.47E2,2.2E1,1.4E1,2.746E3,1.221E3,6.25E2,4.75E2,7.9E1,4.36E2,3.69E2,1.38E2,1.76E2,7.1E1,6E0,2.74E3,6.6E2,5.61E2,3.14E2,3.11E2,4.74E2,1E0,3.57E2,7.9E1,3.1E2,5.9E1,1.3E1,1.25E2,2.63E2,2.477E3,1E0,6.59E2,3E0,5.58E2,2.03E2,1.11E2,2E0,3.09E2,1.98E2,2.76E2,1E2,2.57E2,1.3E1,6.6E1,2.97E2,1.3E1,2.9E1,3E1],"tree_param":{"num_deleted":"0","num_feature":"43","num_nodes":"59","size_leaf_vector":"0"}},{"base_weights":[5.6397883E4,2.9821375E4,2.3619908E5,1.1383742E4,7.676341E4,2.1160517E5,7.652389E5,1.0909748E4,9.489401E5,6.2756523E4,1.0615613E5,1.718296E5,2.92032E5,5.612348E5,9.8516675E5,4.0683896E3,2.8908297E4,5.3674527E4,7.2500305E4,9.481039E4,1.1240317E5,1.5392083E5,1.9244362E5,2.681903E5,3.9608084E5,-1.9820228E5,4.5587773E3,2.3477684E4,3.625457E4,4.6245496E4,6.1516203E4,7.1799E4,2.1438234E5,9.02941E4,1.27555055E5,1.08968E5,1.356397E5,1.3885125E5,1.6347548E5,1.7578877E5,2.0380361E5,2.5171722E5,3.0032997E5,-2.2586075E5,-8.603742E4,1.5503677E3,1.192122E4,2.4913497E5,2.272643E4,3.5305203E4,5.4600465E4,3.706107E4,4.8704168E4,2.014835E5,5.8610277E4,6.7691555E4,7.820661E4,8.4832984E4,1.9477705E5,9.5289336E4,1.1177743E5,1.9480728E5,1.22564625E5,2.3025164E5,1.5600678E5,2.2061889E5,2.6547288E5],"categories":[],"categories_nodes":[],"categories_segments":[],"categories_sizes":[],"default_left":[1,1,1,1,1,1,1,1,0,1,1,1,1,0,0,1,1,1,1,1,1,1,1,1,0,1,1,1,1,1,1,1,0,0,1,1,1,0,1,0,0,1,0,0,0,0,0,0,0,0,0,0,0,0,0,0,0,0,0,0,0,0,0,0,0,0,0],"id":3,"left_children":[1,3,5,7,9,11,13,15,-1,17,19,21,23,-1,-1,25,27,29,31,33,35,37,39,41,-1,43,45,47,49,51,53,55,-1,-1,57,59,61,-1,63,-1,-1,65,-1,-1,-1,-1,-1,-1,-1,-1,-1,-1,-1,-1,-1,-1,-1,-1,-1,-1,-1,-1,-1,-1,-1,-1,-1],"loss_changes":[3.038892E13,4.7965924E12,1.0494207E13,1.7587887E12,6.368254E11,2.4578538E12,1.0622725E12,4.8995782E11,0E0,8.999954E10,2.4994382E10,1.6493157E11,5.337944E11,0E0,0E0,2.8706977E11,4.2873455E10,2.9370614E10,3.52547E10,1.5841231E10,1.068263E10,1.8624807E10,9.770631E9,3.717097E10,0E0,2.2837002E9,6.374918E10,1.0164794E11,6.1538304E9,4.6984724E9,9.6382484E10,8.07587E9,0E0,0E0,4.091373E10,2.246574E8,4.7474934E9,0E0,4.886364E10,0E0,0E0,4.315939E9,0E0,0E0,0E0,0E0,0E0,0E0,0E0,0E0,0E0,0E0,0E0,0E0,0E0,0E0,0E0,0E0,0E0,0E0,0E0,0E0,0E0,0E0,0E0,0E0,0E0],"parents":[2147483647,0,0,1,1,2,2,3,3,4,4,5,5,6,6,7,7,9,9,10,10,11,11,12,12,15,15,16,16,17,17,18,18,19,19,20,20,21,21,22,22,23,23,25,25,26,26,27,27,28,28,29,29,30,30,31,31,34,34,35,35,36,36,38,38,41,41],"right_children":[2,4,6,8,10,12,14,16,-1,18,20,22,24,-1,-1,26,28,30,32,34,36,38,40,42,-1,44,46,48,50,52,54,56,-1,-1,58,60,62,-1,64,-1,-1,66,-1,-1,-1,-1,-1,-1,-1,-1,-1,-1,-1,-1,-1,-1,-1,-1,-1,-1,-1,-1,-1,-1,-1,-1,-1],"split_conditions":[1.3132E5,3.975E4,4.706245E5,2.875E5,8.74995E4,2.23749E5,5.18666E5,1.30495E4,4.7447008E4,6.035E4,1.011625E5,1.706E5,3.48849E5,2.806174E4,4.925834E4,-1.32486E5,2.6557E4,1.671E3,2.76E5,1.1875E5,7.15375E4,1.05E3,1.881995E5,2.82679E5,1.9804043E4,-2.91553E5,2.3995E3,-2.1E4,7.90425E4,4.3185E4,4.0174E4,7.5273E4,1.0719117E4,4.514705E3,7.7E3,1.060495E5,1.043695E5,6.9425625E3,2.299E3,8.789438E3,1.0190181E4,1.06E3,1.5016499E4,-1.1293038E4,-4.301871E3,7.751839E1,5.96061E2,1.2456749E4,1.1363215E3,1.7652601E3,2.7300232E3,1.8530536E3,2.4352085E3,1.0074175E4,2.930514E3,3.384578E3,3.9103306E3,4.2416494E3,9.738853E3,4.764467E3,5.5888716E3,9.740364E3,6.1282314E3,1.1512582E4,7.8003394E3,1.1030944E4,1.3273644E4],"split_indices":[9,9,9,2,9,9,5,9,0,9,9,9,9,0,0,6,9,6,2,3,29,0,9,9,0,8,9,6,11,9,9,9,0,0,0,9,9,0,5,0,0,0,0,0,0,0,0,0,0,0,0,0,0,0,0,0,0,0,0,0,0,0,0,0,0,0,0],"split_type":[0,0,0,0,0,0,0,0,0,0,0,0,0,0,0,0,0,0,0,0,0,0,0,0,0,0,0,0,0,0,0,0,0,0,0,0,0,0,0,0,0,0,0,0,0,0,0,0,0,0,0,0,0,0,0,0,0,0,0,0,0,0,0,0,0,0,0],"sum_hessian":[6.36E3,5.542E3,8.18E2,3.98E3,1.562E3,7.83E2,3.5E1,3.979E3,1E0,1.06E3,5.02E2,5.26E2,2.57E2,2E1,1.5E1,2.884E3,1.095E3,5.52E2,5.08E2,1.84E2,3.18E2,2.86E2,2.4E2,2.12E2,4.5E1,6E0,2.878E3,6.32E2,4.63E2,2.87E2,2.65E2,5.07E2,1E0,1.65E2,1.9E1,2.82E2,3.6E1,1.17E2,1.69E2,1.04E2,1.36E2,1.46E2,6.6E1,4E0,2E0,2.044E3,8.34E2,1E0,6.31E2,4.43E2,2E1,6.4E1,2.23E2,4E0,2.61E2,3.16E2,1.91E2,1.3E1,6E0,5.4E1,2.28E2,4E0,3.2E1,1.4E1,1.55E2,5E1,9.6E1],"tree_param":{"num_deleted":"0","num_feature":"43","num_nodes":"67","size_leaf_vector":"0"}},{"base_weights":[5.236134E4,2.8645625E4,2.3134422E5,1.0359585E4,7.432561E4,1.9553097E5,5.8238794E5,3.6867444E3,2.7023834E4,5.998023E4,1.0301148E5,1.6685403E5,2.5928262E5,4.5849312E5,8.77775E5,-2.2365378E5,4.24481E3,1.03711E5,2.6527064E4,5.1415336E4,6.9810734E4,9.508005E4,1.1061405E5,1.4734186E5,1.8438667E5,2.4244017E5,2.87495E5,3.756347E5,5.1516384E5,1.4691144E3,1.1363081E4,2.0427223E5,2.263206E4,2.0147303E4,3.2142123E4,4.4298953E4,5.8576355E4,6.910438E4,2.0902278E5,8.728063E4,1.08967195E5,1.09082055E5,1.514959E5,1.3098074E5,1.5862905E5,1.695728E5,1.9379539E5,-4.441176E4,1.9434878E3,1.0999521E4,3.2470361E4,2.429066E5,6.3501766E4,1.8018633E4,2.444789E4,3.1471078E4,5.8078047E4,3.5395434E4,4.674248E4,1.4058297E5,5.5987117E4,6.5045617E4,7.830537E4,9.0666336E4,1.2771314E5,2.5093505E5,1.4961498E5],"categories":[],"categories_nodes":[],"categories_segments":[],"categories_sizes":[],"default_left":[1,1,1,1,1,1,1,1,1,1,1,1,1,1,0,0,1,1,1,1,1,1,1,1,1,0,0,0,0,1,1,1,0,1,1,1,1,1,0,0,1,0,0,0,1,0,0,0,0,0,0,0,0,0,0,0,0,0,0,0,0,0,0,0,0,0,0],"id":4,"left_children":[1,3,5,7,9,11,13,15,17,19,21,23,25,27,-1,-1,29,31,33,35,37,39,41,43,45,-1,-1,-1,-1,47,49,51,-1,53,55,57,59,61,-1,-1,63,-1,-1,-1,65,-1,-1,-1,-1,-1,-1,-1,-1,-1,-1,-1,-1,-1,-1,-1,-1,-1,-1,-1,-1,-1,-1],"loss_changes":[2.6845387E13,4.6660856E12,9.189418E12,4.4369114E11,6.510021E11,1.187118E12,2.0861357E12,3.6265843E11,4.071627E10,8.624931E10,2.1501575E10,1.3259348E11,2.865968E10,4.1268806E10,0E0,0E0,5.619525E10,5.245068E10,4.001117E10,2.6656375E10,3.4132197E10,1.9408355E10,7.182746E7,2.0957889E10,8.6769664E8,0E0,0E0,0E0,0E0,4.466036E10,5.766496E9,8.9074074E8,0E0,4.447994E9,8.649507E9,4.698276E9,5.2219806E10,1.331744E10,0E0,0E0,1.9982778E10,0E0,0E0,0E0,6.979138E10,0E0,0E0,0E0,0E0,0E0,0E0,0E0,0E0,0E0,0E0,0E0,0E0,0E0,0E0,0E0,0E0,0E0,0E0,0E0,0E0,0E0,0E0],"parents":[2147483647,0,0,1,1,2,2,3,3,4,4,5,5,6,6,7,7,8,8,9,9,10,10,11,11,12,12,13,13,16,16,17,17,18,18,19,19,20,20,21,21,22,22,23,23,24,24,29,29,30,30,31,31,33,33,34,34,35,35,36,36,37,37,40,40,44,44],"right_children":[2,4,6,8,10,12,14,16,18,20,22,24,26,28,-1,-1,30,32,34,36,38,40,42,44,46,-1,-1,-1,-1,48,50,52,-1,54,56,58,60,62,-1,-1,64,-1,-1,-1,66,-1,-1,-1,-1,-1,-1,-1,-1,-1,-1,-1,-1,-1,-1,-1,-1,-1,-1,-1,-1,-1,-1],"split_conditions":[1.345985E5,3.975E4,3.702525E5,1.2314E4,8.8535E4,2.23749E5,6.552E5,-2.24875E5,-2.1875E4,6.17245E4,1.09475E5,1.7058E5,2.82679E5,2.17318E5,4.388875E4,-1.1182689E4,2.3995E3,5.79615E4,2.34995E4,1.671E3,2.75E5,2.7074E4,1.157975E5,7.75E2,1.882245E5,1.2122009E4,1.437475E4,1.8781734E4,2.5758193E4,-3.6537E4,6.5E0,1.2E5,1.131603E3,4.911E3,1.675E4,4.31725E4,4.0187E4,5.27685E4,1.045114E4,4.3640317E3,8.75E4,5.454103E3,7.5747954E3,6.549037E3,-4.45E1,8.47864E3,9.68977E3,-2.2205881E3,9.717439E1,5.499761E2,1.6235181E3,1.214533E4,3.1750884E3,9.0093164E2,1.2223945E3,1.573554E3,2.9039023E3,1.7697717E3,2.337124E3,7.0291484E3,2.799356E3,3.252281E3,3.9152683E3,4.533317E3,6.385657E3,1.2546753E4,7.4807495E3],"split_indices":[9,9,9,9,9,9,9,6,8,9,9,9,9,29,0,0,9,4,9,6,2,29,8,0,9,0,0,0,0,9,12,2,0,29,0,9,9,11,0,0,2,0,0,0,6,0,0,0,0,0,0,0,0,0,0,0,0,0,0,0,0,0,0,0,0,0,0],"split_type":[0,0,0,0,0,0,0,0,0,0,0,0,0,0,0,0,0,0,0,0,0,0,0,0,0,0,0,0,0,0,0,0,0,0,0,0,0,0,0,0,0,0,0,0,0,0,0,0,0,0,0,0,0,0,0,0,0,0,0,0,0,0,0,0,0,0,0],"sum_hessian":[6.325E3,5.586E3,7.39E2,3.99E3,1.596E3,6.72E2,6.7E1,2.85E3,1.14E3,1.066E3,5.3E2,4.66E2,2.06E2,4.9E1,1.8E1,6E0,2.844E3,6E0,1.134E3,5.73E2,4.93E2,2.66E2,2.64E2,2.25E2,2.41E2,1.35E2,7.1E1,2.3E1,2.6E1,2.047E3,7.97E2,2E0,4E0,5.33E2,6.01E2,2.91E2,2.82E2,4.92E2,1E0,1.75E2,9.1E1,2.58E2,6E0,9.7E1,1.28E2,1.01E2,1.4E2,2E1,2.027E3,7.85E2,1.2E1,1E0,1E0,3.6E2,1.73E2,5.88E2,1.3E1,6.6E1,2.25E2,7E0,2.75E2,3.47E2,1.45E2,4.9E1,4.2E1,9E0,1.19E2],"tree_param":{"num_deleted":"0","num_feature":"43","num_nodes":"67","size_leaf_vector":"0"}},{"base_weights":[5.029223E4,2.695591E4,2.1558155E5,1.0135437E4,6.995066E4,1.8616666E5,5.483299E5,9.673683E3,9.246508E5,5.6182895E4,9.404835E4,1.552079E5,2.3905294E5,4.483974E5,8.981935E5,2.7449177E3,2.4802893E4,4.9096094E4,6.4503984E4,8.321119E4,1.0202673E5,1.463559E5,1.861417E5,2.2005002E5,2.8000903E5,3.6545144E5,5.0347975E5,-1.977688E5,3.184924E3,1.6503576E4,3.0361787E4,4.2530734E4,5.597644E4,6.3746613E4,2.0379722E5,8.021823E4,1.1131617E5,9.839109E4,1.2510724E5,1.321746E5,1.5488281E5,2.7806197E5,1.7820984E5,1.9180419E5,2.3143942E5,2.116847E5,5.177838E5,-2.1544017E5,-5.470594E4,-1.1305782E4,4.638553E3,1.0124783E5,1.613381E4,1.3123345E5,2.9643076E4,3.426057E4,4.4668094E4,5.367168E4,1.0845879E5,5.883649E4,6.890834E4,7.923868E4,1.26291914E5,7.126172E4,1.8124484E5,8.103461E4,1.0044386E5,8.3640484E4,1.3614148E5,1.1949743E5,1.4575773E5,2.2195722E5,1.495725E5],"categories":[],"categories_nodes":[],"categories_segments":[],"categories_sizes":[],"default_left":[1,1,1,1,1,1,1,1,0,1,1,1,1,1,0,1,1,1,1,1,1,1,1,1,0,0,1,1,1,1,1,1,1,1,0,1,1,1,1,1,1,0,0,0,0,0,0,0,0,0,0,0,0,0,0,0,0,0,0,0,0,0,0,0,0,0,0,0,0,0,0,0,0],"id":5,"left_children":[1,3,5,7,9,11,13,15,-1,17,19,21,23,25,-1,27,29,31,33,35,37,39,41,43,-1,-1,45,47,49,51,53,55,57,59,-1,61,63,65,67,69,71,-1,-1,-1,-1,-1,-1,-1,-1,-1,-1,-1,-1,-1,-1,-1,-1,-1,-1,-1,-1,-1,-1,-1,-1,-1,-1,-1,-1,-1,-1,-1,-1],"loss_changes":[2.4379692E13,4.006497E12,7.551945E12,1.6734232E12,5.1161596E11,1.1417483E12,1.7999059E12,4.1745688E11,0E0,5.5449223E10,4.0361787E10,9.7895055E10,1.4384995E11,4.9014637E10,0E0,2.4175513E11,5.721378E10,2.205732E10,3.490421E10,1.1679171E10,1.4626324E10,2.305976E10,2.1898461E10,1.512466E10,0E0,0E0,7.2608645E9,3.3828372E9,5.7515352E10,1.4159585E10,5.0338005E10,3.4367078E9,2.574929E10,7.4269327E9,0E0,1.4732493E8,4.590425E10,1.907884E9,6.9152276E9,7.034372E9,4.48067E10,0E0,0E0,0E0,0E0,0E0,0E0,0E0,0E0,0E0,0E0,0E0,0E0,0E0,0E0,0E0,0E0,0E0,0E0,0E0,0E0,0E0,0E0,0E0,0E0,0E0,0E0,0E0,0E0,0E0,0E0,0E0,0E0],"parents":[2147483647,0,0,1,1,2,2,3,3,4,4,5,5,6,6,7,7,9,9,10,10,11,11,12,12,13,13,15,15,16,16,17,17,18,18,19,19,20,20,21,21,22,22,23,23,26,26,27,27,28,28,29,29,30,30,31,31,32,32,33,33,35,35,36,36,37,37,38,38,39,39,40,40],"right_children":[2,4,6,8,10,12,14,16,-1,18,20,22,24,26,-1,28,30,32,34,36,38,40,42,44,-1,-1,46,48,50,52,54,56,58,60,-1,62,64,66,68,70,72,-1,-1,-1,-1,-1,-1,-1,-1,-1,-1,-1,-1,-1,-1,-1,-1,-1,-1,-1,-1,-1,-1,-1,-1,-1,-1,-1,-1,-1,-1,-1,-1],"split_conditions":[1.31175E5,3.975E4,3.702525E5,2.875E5,8.4983E4,2.122085E5,6.31013E5,1.0065E4,4.6232543E4,6.0399E4,1.01166E5,1.881995E5,2.82679E5,2.20274E5,4.4909676E4,-2.25875E5,1.99555E4,1.671E3,2.76E5,1.1875E5,7.22875E4,7.25E2,1.89104E5,9.475E2,1.4000452E4,1.8272572E4,3.55E1,1.2737E4,-7.325E3,1.0095E4,-1.9625E4,4.31725E4,1.305E5,7.1725E4,1.0189861E4,5.15E4,7.7E3,1.04499E5,3.8E1,1.601E5,-1.005E2,1.3903099E4,8.910492E3,9.59021E3,1.1571972E4,1.0584235E4,2.5889191E4,-1.0772009E4,-2.735297E3,-5.652891E2,2.3192766E2,5.0623916E3,8.066905E2,6.561673E3,1.4821538E3,1.7130286E3,2.2334048E3,2.683584E3,5.4229395E3,2.9418245E3,3.4454172E3,3.961934E3,6.3145957E3,3.563086E3,9.062242E3,4.0517305E3,5.022193E3,4.1820244E3,6.807074E3,5.9748716E3,7.2878867E3,1.1097861E4,7.478625E3],"split_indices":[9,9,9,2,9,9,5,9,0,9,9,9,9,29,0,6,9,6,2,3,29,0,9,0,0,0,10,0,9,9,8,9,3,9,0,0,0,9,10,9,6,0,0,0,0,0,0,0,0,0,0,0,0,0,0,0,0,0,0,0,0,0,0,0,0,0,0,0,0,0,0,0,0],"split_type":[0,0,0,0,0,0,0,0,0,0,0,0,0,0,0,0,0,0,0,0,0,0,0,0,0,0,0,0,0,0,0,0,0,0,0,0,0,0,0,0,0,0,0,0,0,0,0,0,0,0,0,0,0,0,0,0,0,0,0,0,0,0,0,0,0,0,0,0,0,0,0,0,0],"sum_hessian":[6.321E3,5.54E3,7.81E2,3.983E3,1.557E3,7.19E2,6.2E1,3.982E3,1E0,9.93E2,5.64E2,4.56E2,2.63E2,5E1,1.2E1,2.732E3,1.25E3,5.4E2,4.53E2,2.44E2,3.2E2,3.59E2,9.7E1,1.84E2,7.9E1,2.3E1,2.7E1,5E0,2.727E3,5.03E2,7.47E2,2.8E2,2.6E2,4.52E2,1E0,2.24E2,2E1,2.81E2,3.9E1,1.41E2,2.18E2,5E0,9.2E1,5.8E1,1.26E2,2E0,2.5E1,4E0,1E0,2.48E2,2.479E3,1E0,5.02E2,4E0,7.43E2,6.1E1,2.19E2,2.51E2,9E0,2.38E2,2.14E2,2.22E2,2E0,1.4E1,6E0,3.4E1,2.47E2,1E1,2.9E1,7.8E1,6.3E1,1.3E1,2.05E2],"tree_param":{"num_deleted":"0","num_feature":"43","num_nodes":"73","size_leaf_vector":"0"}},{"base_weights":[4.7900637E4,2.5910271E4,2.0358284E5,9.376441E3,6.570851E4,1.8659164E5,8.06381E5,3.5020474E3,2.6644922E4,5.1839207E4,9.07714E4,1.6128923E5,2.9695088E5,5.8642594E5,1.034496E6,-2.1602777E5,3.955352E3,2.5416379E4,3.222052E5,4.563807E4,6.256669E4,8.063862E4,9.775975E4,1.4374431E5,2.0351539E5,2.5900483E5,3.7130356E5,1.4076161E3,1.0908171E4,1.23494695E5,2.4890045E4,1.2484514E4,6.256836E5,4.2807848E4,5.651278E4,6.1594445E4,1.1274212E5,7.695416E4,1.1205485E5,1.2228377E5,9.430447E4,1.4049711E5,1.9202808E5,1.9439202E5,2.423484E5,-1.9639059E4,2.124547E3,1.0458252E4,2.5873207E4,2.335531E5,3.759182E4,2.1674092E4,3.3353043E4,4.144353E4,6.2787535E4,8.379462E4,4.9169055E4,5.8729055E4,7.407644E4,2.1071234E5,5.1005605E4,7.597111E4,1.2208219E5,1.9529473E5,7.808295E4,1.0655539E5,1.6794578E5,7.890064E4,9.605441E4,1.3310152E5,1.555707E5,1.3336062E5,2.2859817E5,2.6973475E5,1.7052338E5],"categories":[],"categories_nodes":[],"categories_segments":[],"categories_sizes":[],"default_left":[1,1,1,1,1,1,1,1,1,1,1,1,1,0,0,0,1,1,1,1,1,1,1,1,1,0,0,1,1,1,1,0,0,1,1,1,1,1,1,1,1,1,1,0,1,0,0,0,0,0,0,0,0,0,0,0,0,0,0,0,0,0,0,0,0,0,0,0,0,0,0,0,0,0,0],"id":6,"left_children":[1,3,5,7,9,11,13,15,17,19,21,23,25,-1,-1,-1,27,29,31,33,35,37,39,41,43,-1,-1,45,47,49,51,-1,-1,53,55,57,59,61,63,65,67,69,71,-1,73,-1,-1,-1,-1,-1,-1,-1,-1,-1,-1,-1,-1,-1,-1,-1,-1,-1,-1,-1,-1,-1,-1,-1,-1,-1,-1,-1,-1,-1,-1],"loss_changes":[2.1490938E13,3.6204527E12,7.8077787E12,3.944141E11,5.566764E11,2.0659149E12,4.4702053E11,2.8974324E11,3.5019876E11,6.6461106E10,3.2762233E10,4.285939E11,2.9882633E11,0E0,0E0,0E0,5.131967E10,4.7722267E10,3.681628E11,1.8017288E10,1.1544429E10,1.9157352E10,1.6855073E10,4.2007003E10,1.630693E10,0E0,0E0,3.2060617E10,4.960985E9,3.849198E10,2.5949372E10,0E0,0E0,1.187224E10,2.2726836E10,9.026011E9,2.5542533E10,3.9636173E8,4.9790616E10,9.3957E9,4.540334E8,2.5668092E10,2.3150985E10,0E0,1.3014663E10,0E0,0E0,0E0,0E0,0E0,0E0,0E0,0E0,0E0,0E0,0E0,0E0,0E0,0E0,0E0,0E0,0E0,0E0,0E0,0E0,0E0,0E0,0E0,0E0,0E0,0E0,0E0,0E0,0E0,0E0],"parents":[2147483647,0,0,1,1,2,2,3,3,4,4,5,5,6,6,7,7,8,8,9,9,10,10,11,11,12,12,16,16,17,17,18,18,19,19,20,20,21,21,22,22,23,23,24,24,27,27,28,28,29,29,30,30,33,33,34,34,35,35,36,36,37,37,38,38,39,39,40,40,41,41,42,42,44,44],"right_children":[2,4,6,8,10,12,14,16,18,20,22,24,26,-1,-1,-1,28,30,32,34,36,38,40,42,44,-1,-1,46,48,50,52,-1,-1,54,56,58,60,62,64,66,68,70,72,-1,74,-1,-1,-1,-1,-1,-1,-1,-1,-1,-1,-1,-1,-1,-1,-1,-1,-1,-1,-1,-1,-1,-1,-1,-1,-1,-1,-1,-1,-1,-1],"split_conditions":[1.32325E5,3.82365E4,5.73428E5,1.4199E4,8.49995E4,2.722E5,1.0858685E6,-2.24875E5,1.240485E5,6.40745E4,1.01166E5,2.08925E5,3.702525E5,2.9321297E4,5.17248E4,-1.0801389E4,3.2995E3,-2.1875E4,4.3865E3,5.740515E-1,7.664616E-1,1.1875E5,3.05E4,1.3605E5,1.60023E5,1.2950241E4,1.8565178E4,-1.7525E4,1.385E4,4.89615E4,3.00305E4,6.242257E2,3.1284182E4,6.05E1,8.5E3,6.504E4,4.3E3,5.15E4,1.36E5,2.34E4,1.04499E5,1.777875E5,7E3,9.719601E3,1.45E5,-9.8195294E2,1.06227356E2,5.229126E2,1.2936604E3,1.1677655E4,1.8795911E3,1.0837046E3,1.6676522E3,2.0721765E3,3.1393767E3,4.189731E3,2.458453E3,2.936453E3,3.703822E3,1.0535617E4,2.5502803E3,3.7985554E3,6.1041094E3,9.764737E3,3.9041477E3,5.3277695E3,8.397289E3,3.945032E3,4.80272E3,6.6550757E3,7.778535E3,6.6680312E3,1.1429909E4,1.3486737E4,8.526169E3],"split_indices":[9,9,9,9,9,9,9,6,11,9,9,9,9,0,0,0,9,8,0,28,28,3,4,7,7,0,0,9,5,4,9,0,0,10,4,11,5,0,3,0,9,9,4,0,2,0,0,0,0,0,0,0,0,0,0,0,0,0,0,0,0,0,0,0,0,0,0,0,0,0,0,0,0,0,0],"split_type":[0,0,0,0,0,0,0,0,0,0,0,0,0,0,0,0,0,0,0,0,0,0,0,0,0,0,0,0,0,0,0,0,0,0,0,0,0,0,0,0,0,0,0,0,0,0,0,0,0,0,0,0,0,0,0,0,0,0,0,0,0,0,0,0,0,0,0,0,0,0,0,0,0,0,0],"sum_hessian":[6.278E3,5.502E3,7.76E2,3.888E3,1.614E3,7.56E2,2E1,2.902E3,9.86E2,1.041E3,5.73E2,6.17E2,1.39E2,1.2E1,8E0,5E0,2.897E3,9.83E2,3E0,6.63E2,3.78E2,2.39E2,3.34E2,4.39E2,1.78E2,9.5E1,4.4E1,2.121E3,7.76E2,4E0,9.79E2,2E0,1E0,5.3E2,1.33E2,3.73E2,5E0,2.17E2,2.2E1,3.7E1,2.97E2,4.15E2,2.4E1,1.49E2,2.9E1,6.9E1,2.052E3,7.55E2,2.1E1,1E0,3E0,7.12E2,2.67E2,4.99E2,3.1E1,2.6E1,1.07E2,3.08E2,6.5E1,1E0,4E0,2.15E2,2E0,5E0,1.7E1,3E1,7E0,3.5E1,2.62E2,2.85E2,1.3E2,1.1E1,1.3E1,1.9E1,1E1],"tree_param":{"num_deleted":"0","num_feature":"43","num_nodes":"75","size_leaf_vector":"0"}},{"base_weights":[4.5587508E4,2.4764537E4,1.9025564E5,9.341726E3,6.207938E4,1.7086895E5,6.526198E5,8.888234E3,9.0122244E5,5.062736E4,8.729135E4,1.490853E5,2.6339822E5,4.413016E5,8.131182E5,3.4336707E3,2.5687451E4,4.0250293E4,5.776056E4,8.462644E4,1.0582334E5,1.29542984E5,1.7753914E5,2.3930238E5,3.1216222E5,-1.9557712E5,3.8999934E3,2.445357E4,6.1004156E5,3.7155824E4,5.2979574E4,5.725275E4,1.9747306E5,7.37102E4,9.056942E4,1.4590308E5,8.922115E4,1.261201E5,1.5191753E5,1.5687473E5,1.8688195E5,9.3861115E2,1.034584E4,1.20663445E5,2.392919E4,3.6473082E4,6.3917402E4,9.931591E4,4.507028E4,5.0910266E4,6.157821E4,8.850118E4,1.1656142E5,5.617222E4,1.9412436E5,1.1377464E5,1.3239575E5,2.6971256E5,1.3708188E5,1.7015948E5,2.017778E5],"categories":[],"categories_nodes":[],"categories_segments":[],"categories_sizes":[],"default_left":[1,1,1,1,1,1,1,1,0,1,1,1,1,0,0,1,1,1,1,1,1,1,1,0,0,0,1,1,0,1,1,1,0,0,1,1,0,1,1,0,1,0,0,0,0,0,0,0,0,0,0,0,0,0,0,0,0,0,0,0,0],"id":7,"left_children":[1,3,5,7,9,11,13,15,-1,17,19,21,23,-1,-1,25,27,29,31,33,35,37,39,-1,-1,-1,41,43,-1,45,47,49,-1,-1,51,53,-1,55,57,-1,59,-1,-1,-1,-1,-1,-1,-1,-1,-1,-1,-1,-1,-1,-1,-1,-1,-1,-1,-1,-1],"loss_changes":[1.9247665E13,3.215313E12,7.095311E12,1.5916283E12,4.6736238E11,1.5188099E12,7.264891E11,3.622263E11,0E0,8.102347E10,1.6182149E10,3.262036E11,9.685067E10,0E0,0E0,2.778733E11,6.8375334E11,1.6229859E10,3.5874144E10,2.2517907E10,2.690705E10,9.635889E9,1.9528155E10,0E0,0E0,0E0,5.687436E10,4.5948862E10,0E0,4.5204767E9,2.7774714E10,1.5081275E10,0E0,0E0,5.1125944E9,5.8326614E10,0E0,1.0658775E10,4.1667723E10,0E0,7.762608E9,0E0,0E0,0E0,0E0,0E0,0E0,0E0,0E0,0E0,0E0,0E0,0E0,0E0,0E0,0E0,0E0,0E0,0E0,0E0,0E0],"parents":[2147483647,0,0,1,1,2,2,3,3,4,4,5,5,6,6,7,7,9,9,10,10,11,11,12,12,15,15,16,16,17,17,18,18,19,19,20,20,21,21,22,22,26,26,27,27,29,29,30,30,31,31,34,34,35,35,37,37,38,38,40,40],"right_children":[2,4,6,8,10,12,14,16,-1,18,20,22,24,-1,-1,26,28,30,32,34,36,38,40,-1,-1,-1,42,44,-1,46,48,50,-1,-1,52,54,-1,56,58,-1,60,-1,-1,-1,-1,-1,-1,-1,-1,-1,-1,-1,-1,-1,-1,-1,-1,-1,-1,-1,-1],"split_conditions":[1.3132E5,3.85645E4,4.706245E5,2.525E5,8.8535E4,2.65891E5,6.5501E5,1.45975E4,4.506112E4,5.369E4,1.1875E5,1.881995E5,3.48849E5,2.206508E4,4.065591E4,-2.24875E5,1.25628E5,1.32545E4,2.76E5,1.01166E5,9.6537E4,1.495E5,4.20745E4,1.1965119E4,1.5608111E4,-9.778856E3,2.4855E3,-2.1875E4,3.0502078E4,1.825E5,4.01995E4,6.69735E4,9.873653E3,3.6855103E3,8.9105E4,3.55E1,4.4610576E3,4.45E1,-3.4E3,7.843737E3,4.6E4,4.6930557E1,5.17292E2,6.0331724E3,1.1964595E3,1.8236542E3,3.19587E3,4.9657954E3,2.2535142E3,2.5455134E3,3.0789106E3,4.425059E3,5.8280713E3,2.808611E3,9.706218E3,5.688732E3,6.6197876E3,1.3485628E4,6.8540938E3,8.507975E3,1.008889E4],"split_indices":[9,9,9,2,9,9,9,9,0,9,3,9,9,0,0,6,11,6,2,9,9,3,7,0,0,0,9,8,0,2,9,9,0,0,29,10,0,10,6,0,3,0,0,0,0,0,0,0,0,0,0,0,0,0,0,0,0,0,0,0,0],"split_type":[0,0,0,0,0,0,0,0,0,0,0,0,0,0,0,0,0,0,0,0,0,0,0,0,0,0,0,0,0,0,0,0,0,0,0,0,0,0,0,0,0,0,0,0,0,0,0,0,0,0,0,0,0,0,0,0,0,0,0,0,0],"sum_hessian":[6.39E3,5.587E3,8.03E2,3.954E3,1.633E3,7.72E2,3.1E1,3.953E3,1E0,1.125E3,5.08E2,6.27E2,1.45E2,1.5E1,1.6E1,2.985E3,9.68E2,4.61E2,6.64E2,4.49E2,5.9E1,3.75E2,2.52E2,1.01E2,4.4E1,6E0,2.979E3,9.67E2,1E0,3.74E2,8.7E1,6.63E2,1E0,1.63E2,2.86E2,1.5E1,4.4E1,3.31E2,4.4E1,8.4E1,1.68E2,2.042E3,9.37E2,4E0,9.63E2,3.67E2,7E0,1.1E1,7.6E1,2.74E2,3.89E2,2.69E2,1.7E1,6E0,9E0,1.18E2,2.13E2,3E0,4.1E1,8.5E1,8.3E1],"tree_param":{"num_deleted":"0","num_feature":"43","num_nodes":"61","size_leaf_vector":"0"}},{"base_weights":[4.3464277E4,2.3228336E4,1.8045378E5,8.818197E3,5.971499E4,1.5587117E5,4.6878444E5,2.437187E3,2.2530908E4,4.7554453E4,8.047363E4,1.3492227E5,2.148428E5,3.889995E5,8.1783906E5,-1.8141289E5,2.9780208E3,2.1638451E4,2.986917E5,4.1263938E4,5.5656996E4,6.802084E4,8.631904E4,1.21813164E5,1.599474E5,1.967297E5,2.4781381E5,3.06931E5,4.444233E5,5.6243353E2,8.530546E3,1.4552803E4,2.6232047E4,1.7285729E3,5.947905E5,1.434179E5,4.0827754E4,5.489269E4,1.9253622E5,6.262795E4,7.25457E4,2.3642598E5,8.532793E4,1.090688E5,1.2999033E5,2.2231056E5,1.5372356E5,2.5899566E5,4.71149E5,-7.8651587E3,1.8673396E3,8.1627607E3,2.9200248E4,9.819653E4,1.4187662E4,1.18556914E5,2.5590973E4,3.9223984E3,-1.3295391E3,3.585368E4,4.5943277E4,5.116187E4,6.3818953E4,7.0629586E4,1.28246234E5,8.254851E4,1.05837484E5,1.18977766E5,9.8142625E4,1.0810581E5,1.3672181E5,1.116136E5,2.664977E5],"categories":[],"categories_nodes":[],"categories_segments":[],"categories_sizes":[],"default_left":[1,1,1,1,1,1,1,1,1,1,1,1,1,1,0,0,1,1,1,1,1,1,1,1,1,0,0,0,1,1,1,1,1,1,0,0,1,1,0,0,1,0,1,1,1,1,0,0,0,0,0,0,0,0,0,0,0,0,0,0,0,0,0,0,0,0,0,0,0,0,0,0,0],"id":8,"left_children":[1,3,5,7,9,11,13,15,17,19,21,23,25,27,-1,-1,29,31,33,35,37,39,41,43,45,-1,-1,-1,47,49,51,53,55,57,-1,-1,59,61,-1,-1,63,-1,65,67,69,71,-1,-1,-1,-1,-1,-1,-1,-1,-1,-1,-1,-1,-1,-1,-1,-1,-1,-1,-1,-1,-1,-1,-1,-1,-1,-1,-1],"loss_changes":[1.7681881E13,2.922797E12,5.7461105E12,3.4881143E11,3.9350803E11,9.074398E11,1.4642158E12,2.7119501E11,3.055574E11,4.8417735E10,3.634784E10,1.6488333E11,6.889669E10,1.0921391E11,0E0,0E0,3.6410434E10,4.0727085E10,3.506936E11,1.9275317E10,3.4625815E10,9.299558E7,3.79962E10,2.469344E10,3.9571685E10,0E0,0E0,0E0,2.664484E10,2.083242E10,6.0181094E9,1.3847159E10,4.2244014E10,2.5341876E7,0E0,0E0,1.2678201E10,1.1088298E10,0E0,0E0,1.2946637E9,0E0,1.3495173E10,4.7798026E9,1.7923834E10,4.3625873E10,0E0,0E0,0E0,0E0,0E0,0E0,0E0,0E0,0E0,0E0,0E0,0E0,0E0,0E0,0E0,0E0,0E0,0E0,0E0,0E0,0E0,0E0,0E0,0E0,0E0,0E0,0E0],"parents":[2147483647,0,0,1,1,2,2,3,3,4,4,5,5,6,6,7,7,8,8,9,9,10,10,11,11,12,12,13,13,16,16,17,17,18,18,19,19,20,20,21,21,22,22,23,23,24,24,28,28,29,29,30,30,31,31,32,32,33,33,36,36,37,37,40,40,42,42,43,43,44,44,45,45],"right_children":[2,4,6,8,10,12,14,16,18,20,22,24,26,28,-1,-1,30,32,34,36,38,40,42,44,46,-1,-1,-1,48,50,52,54,56,58,-1,-1,60,62,-1,-1,64,-1,66,68,70,72,-1,-1,-1,-1,-1,-1,-1,-1,-1,-1,-1,-1,-1,-1,-1,-1,-1,-1,-1,-1,-1,-1,-1,-1,-1,-1,-1],"split_conditions":[1.3132E5,3.975E4,3.75264E5,1.0065E4,8.40695E4,2.3615E5,7.70516E5,-2.24875E5,1.25628E5,6.0399E4,9.6401E4,1.86284E5,2.982985E5,2.17318E5,4.0891953E4,-9.070645E3,1.2495E3,1.99555E4,4.3865E3,3.981E4,2.76E5,2.5E0,9.6451E4,1.512355E5,4.5E4,9.836485E3,1.239069E4,1.534655E4,6.354E4,-7.173E3,6.5E0,1.009E4,-1.9625E4,1.25E3,2.9739525E4,7.1708955E3,1.671E3,5.292E4,9.626812E3,3.1313975E3,9.31495E4,1.18213E4,7.22875E4,1.40215E5,5.224E3,3.325E4,7.686178E3,1.2949783E4,2.3557451E4,-3.9325793E2,9.336698E1,4.0813803E2,1.4600125E3,4.9098267E3,7.093831E2,5.9278457E3,1.2795487E3,1.9611992E2,-6.647695E1,1.792684E3,2.2971638E3,2.5580935E3,3.1909478E3,3.5314792E3,6.412312E3,4.1274253E3,5.2918745E3,5.948888E3,4.9071313E3,5.4052905E3,6.836091E3,5.58068E3,1.3324885E4],"split_indices":[9,9,9,9,9,9,5,6,11,9,9,9,9,29,0,0,9,9,0,9,2,27,9,9,4,0,0,0,4,9,12,9,8,0,0,0,6,11,0,0,8,0,29,9,29,3,0,0,0,0,0,0,0,0,0,0,0,0,0,0,0,0,0,0,0,0,0,0,0,0,0,0,0],"split_type":[0,0,0,0,0,0,0,0,0,0,0,0,0,0,0,0,0,0,0,0,0,0,0,0,0,0,0,0,0,0,0,0,0,0,0,0,0,0,0,0,0,0,0,0,0,0,0,0,0,0,0,0,0,0,0,0,0,0,0,0,0,0,0,0,0,0,0,0,0,0,0,0,0],"sum_hessian":[6.379E3,5.559E3,8.2E2,3.986E3,1.573E3,7.57E2,6.3E1,2.721E3,1.265E3,9.94E2,5.79E2,5.61E2,1.96E2,5.3E1,1E1,7E0,2.714E3,1.262E3,3E0,5.63E2,4.31E2,1.89E2,3.9E2,3.72E2,1.89E2,1.31E2,6.5E1,2.4E1,2.9E1,1.892E3,8.22E2,4.98E2,7.64E2,2E0,1E0,1E0,5.62E2,4.3E2,1E0,9.3E1,9.6E1,1E0,3.89E2,1.51E2,2.21E2,1.4E1,1.75E2,5E0,2.4E1,2.53E2,1.639E3,8.09E2,1.3E1,1E0,4.97E2,4E0,7.6E2,1E0,1E0,2.89E2,2.73E2,3.08E2,1.22E2,9.5E1,1E0,3.47E2,4.2E1,7.4E1,7.7E1,5.6E1,1.65E2,5E0,9E0],"tree_param":{"num_deleted":"0","num_feature":"43","num_nodes":"73","size_leaf_vector":"0"}},{"base_weights":[4.172556E4,2.2717523E4,1.8151052E5,8.81015E3,5.751076E4,1.6378733E5,6.598784E5,8.375274E3,8.787251E5,4.756764E4,8.273548E4,1.4691356E5,2.918877E5,5.095349E5,8.322385E5,2.825389E3,2.2110836E4,3.9053414E4,5.5189953E4,8.035991E4,1.0525424E5,1.2595198E5,1.8458939E5,2.4523453E5,3.297864E5,-1.7179525E5,3.251943E3,2.1158873E4,2.912244E5,3.577262E4,5.325166E4,5.466148E4,1.8772281E5,7.0995305E4,8.4119266E4,7.038494E4,1.2796699E5,1.112012E5,1.3501177E5,1.6469695E5,1.9233888E5,3.587398E5,2.4989386E5,-2.881553E4,3.7056477E3,1.1267091E5,2.0822465E4,5.7992075E5,1.6853584E3,3.5296168E4,1.2461151E5,1.5327778E5,4.532077E4,5.04046E4,6.1306598E4,6.3090125E4,9.199817E4,7.9125445E4,9.034744E4,1.4592616E5,8.38165E4,9.88517E4,1.2650684E5,2.0355E5,1.2994337E5,1.431831E5,1.8711478E5,2.3825047E5,3.9172456E5],"categories":[],"categories_nodes":[],"categories_segments":[],"categories_sizes":[],"default_left":[1,1,1,1,1,1,1,1,0,1,1,1,1,0,0,1,1,1,1,1,1,1,1,0,1,0,1,1,1,1,1,1,0,1,1,0,1,1,1,1,0,1,0,0,0,0,0,0,0,0,0,0,0,0,0,0,0,0,0,0,0,0,0,0,0,0,0,0,0],"id":9,"left_children":[1,3,5,7,9,11,13,15,-1,17,19,21,23,-1,-1,25,27,29,31,33,35,37,39,-1,41,-1,43,45,47,49,51,53,-1,55,57,-1,59,61,63,65,-1,67,-1,-1,-1,-1,-1,-1,-1,-1,-1,-1,-1,-1,-1,-1,-1,-1,-1,-1,-1,-1,-1,-1,-1,-1,-1,-1,-1],"loss_changes":[1.697966E13,2.7227843E12,6.3777475E12,1.5141869E12,3.9912E11,1.554493E12,2.7560247E11,3.0646154E11,0E0,7.2801845E10,1.5774777E10,4.940324E11,6.941311E10,0E0,0E0,2.1395879E11,2.9024525E11,2.3668326E10,3.225315E10,8.60278E9,2.2672146E10,4.1649963E10,4.0857764E9,0E0,1.2132549E10,0E0,4.170283E10,3.3180385E10,3.333781E11,1.4606795E10,7.317625E10,1.4052098E10,0E0,1.494981E10,1.8707907E9,0E0,6.0058173E9,1.906049E10,6.3174083E10,7.933526E9,0E0,2.5900614E10,0E0,0E0,0E0,0E0,0E0,0E0,0E0,0E0,0E0,0E0,0E0,0E0,0E0,0E0,0E0,0E0,0E0,0E0,0E0,0E0,0E0,0E0,0E0,0E0,0E0,0E0,0E0],"parents":[2147483647,0,0,1,1,2,2,3,3,4,4,5,5,6,6,7,7,9,9,10,10,11,11,12,12,15,15,16,16,17,17,18,18,19,19,20,20,21,21,22,22,24,24,26,26,27,27,28,28,29,29,30,30,31,31,33,33,34,34,36,36,37,37,38,38,39,39,41,41],"right_children":[2,4,6,8,10,12,14,16,-1,18,20,22,24,-1,-1,26,28,30,32,34,36,38,40,-1,42,-1,44,46,48,50,52,54,-1,56,58,-1,60,62,64,66,-1,68,-1,-1,-1,-1,-1,-1,-1,-1,-1,-1,-1,-1,-1,-1,-1,-1,-1,-1,-1,-1,-1,-1,-1,-1,-1,-1,-1],"split_conditions":[1.346235E5,3.9675E4,5.73428E5,1.375E5,9.43745E4,3.1935E5,1.0991795E6,1.2316E4,4.3936258E4,6.03875E4,8.84185E4,2.12261E5,3.702525E5,2.5476746E4,4.1611926E4,-2.24875E5,1.25628E5,1.32545E4,1.26E5,1.04499E5,4.9875E4,5E-1,5E-1,1.2261727E4,2.815E5,-8.589763E3,-2.49E4,-2.1875E4,1.05E4,1.501905E5,4.0625E4,7.96045E4,9.386141E3,3.02615E4,9.9E4,3.5192468E3,2E4,1.68989E5,-1.755E2,2.5055E5,9.616944E3,4.45E1,1.2494693E4,-1.4407765E3,1.852824E2,5.6335454E3,1.0411233E3,2.8996037E4,8.426792E1,1.7648085E3,6.2305757E3,7.663889E3,2.2660386E3,2.5202302E3,3.0653298E3,3.1545063E3,4.5999087E3,3.9562722E3,4.517372E3,7.296308E3,4.190825E3,4.9425854E3,6.3253423E3,1.01775E4,6.4971685E3,7.159155E3,9.355739E3,1.1912523E4,1.9586229E4],"split_indices":[9,9,9,4,9,9,9,9,0,9,8,9,9,0,0,6,11,6,4,9,11,21,21,0,4,0,9,8,4,11,9,9,0,29,4,0,1,9,6,9,0,10,0,0,0,0,0,0,0,0,0,0,0,0,0,0,0,0,0,0,0,0,0,0,0,0,0,0,0],"split_type":[0,0,0,0,0,0,0,0,0,0,0,0,0,0,0,0,0,0,0,0,0,0,0,0,0,0,0,0,0,0,0,0,0,0,0,0,0,0,0,0,0,0,0,0,0,0,0,0,0,0,0,0,0,0,0,0,0,0,0,0,0,0,0,0,0,0,0,0,0],"sum_hessian":[6.391E3,5.627E3,7.64E2,4.021E3,1.606E3,7.38E2,2.6E1,4.02E3,1E0,1.154E3,4.52E2,6.54E2,8.4E1,1.6E1,1E1,2.864E3,1.156E3,5.48E2,6.06E2,4.13E2,3.9E1,4.23E2,2.31E2,4.1E1,4.3E1,6E0,2.858E3,1.153E3,3E0,4.48E2,1E2,6.05E2,1E0,1.24E2,2.89E2,1.7E1,2.2E1,1.66E2,2.57E2,7.1E1,1.6E2,2.9E1,1.4E1,3.9E1,2.819E3,3E0,1.15E3,1E0,2E0,4.47E2,1E0,6E0,9.4E1,3.74E2,2.31E2,9.3E1,3.1E1,1.68E2,1.21E2,1.4E1,8E0,9.6E1,7E1,1.5E1,2.42E2,4E1,3.1E1,8E0,2.1E1],"tree_param":{"num_deleted":"0","num_feature":"43","num_nodes":"69","size_leaf_vector":"0"}},{"base_weights":[3.9526188E4,2.1496682E4,1.708389E5,9.904574E3,5.963369E4,1.5508572E5,6.487875E5,4.0346404E3,2.6492873E4,4.91194E4,7.8210336E4,1.3595731E5,2.526234E5,5.0157653E5,9.346461E5,-8.976659E4,4.422322E3,2.4070125E4,4.2890188E4,4.8736617E4,1.8302975E5,2.0096833E5,7.698087E4,1.18593234E5,1.6929389E5,2.1305256E5,2.9551528E5,-1.0249222E5,3.1470492E4,1.4558336E3,1.1051793E4,1.8955186E4,2.9251994E4,8.767773E4,3.1612436E4,4.297587E4,5.6878586E4,6.636989E4,3.023818E5,7.235933E4,8.632834E4,1.0877729E5,1.2988253E5,1.4208305E5,1.7948033E5,3.3793472E5,2.4254172E5,-1.2603288E5,-4.4328727E4,-7.0168774E3,2.6400005E3,2.0455771E4,1.0485345E4,1.836638E4,5.7127285E4,2.6982146E4,3.372148E4,5.6542275E5,4.9041883E4,2.3127748E4,4.52815E4,4.031104E4,4.9330977E4,5.5904688E4,1.2470992E5,6.3145605E4,7.790411E4,8.038419E4,1.2740487E5,1.4261866E5,1.03858625E5,1.1345563E5,1.3680442E5,1.4873798E5,1.9015734E5,1.3819677E5,3.479839E5],"categories":[],"categories_nodes":[],"categories_segments":[],"categories_sizes":[],"default_left":[1,1,1,1,1,1,1,1,1,1,1,1,1,0,0,1,1,1,1,1,0,1,1,1,1,0,1,1,0,1,1,1,1,1,1,1,1,0,0,1,1,1,1,0,1,1,0,0,0,0,0,0,0,0,0,0,0,0,0,0,0,0,0,0,0,0,0,0,0,0,0,0,0,0,0,0,0],"id":10,"left_children":[1,3,5,7,9,11,13,15,17,19,21,23,25,-1,-1,27,29,31,33,35,-1,37,39,41,43,-1,45,47,-1,49,51,53,55,57,59,61,63,-1,-1,65,67,69,71,-1,73,75,-1,-1,-1,-1,-1,-1,-1,-1,-1,-1,-1,-1,-1,-1,-1,-1,-1,-1,-1,-1,-1,-1,-1,-1,-1,-1,-1,-1,-1,-1,-1],"loss_changes":[1.4942375E13,2.4538836E12,5.6366455E12,4.1460135E11,2.489031E11,1.3444338E12,5.411596E11,1.1483762E11,4.318331E10,3.357252E10,5.4861234E10,3.3881588E11,1.4071208E11,0E0,0E0,2.3282123E10,6.1637603E10,2.5208357E10,6.895287E10,3.639214E10,0E0,3.4531344E10,1.3754958E10,3.141691E10,3.2707183E10,0E0,4.162742E10,1.0843611E10,0E0,2.176026E10,4.947239E9,1.0008969E10,3.969876E9,4.890969E11,1.2290171E10,6.292701E9,1.5488909E10,0E0,0E0,1.1224482E10,2.5895109E10,2.2806528E10,5.6279695E9,0E0,2.0623917E10,8.111522E9,0E0,0E0,0E0,0E0,0E0,0E0,0E0,0E0,0E0,0E0,0E0,0E0,0E0,0E0,0E0,0E0,0E0,0E0,0E0,0E0,0E0,0E0,0E0,0E0,0E0,0E0,0E0,0E0,0E0,0E0,0E0],"parents":[2147483647,0,0,1,1,2,2,3,3,4,4,5,5,6,6,7,7,8,8,9,9,10,10,11,11,12,12,15,15,16,16,17,17,18,18,19,19,21,21,22,22,23,23,24,24,26,26,27,27,29,29,30,30,31,31,32,32,33,33,34,34,35,35,36,36,39,39,40,40,41,41,42,42,44,44,45,45],"right_children":[2,4,6,8,10,12,14,16,18,20,22,24,26,-1,-1,28,30,32,34,36,-1,38,40,42,44,-1,46,48,-1,50,52,54,56,58,60,62,64,-1,-1,66,68,70,72,-1,74,76,-1,-1,-1,-1,-1,-1,-1,-1,-1,-1,-1,-1,-1,-1,-1,-1,-1,-1,-1,-1,-1,-1,-1,-1,-1,-1,-1,-1,-1,-1,-1],"split_conditions":[1.346235E5,4.91495E4,5.73428E5,1.89995E4,9.27495E4,2.82679E5,1.0526735E6,-5.282E4,5.35E3,2.76E5,9.2924E4,2.08925E5,3.48849E5,2.5078826E4,4.673231E4,7.5E2,3.5495E3,3.22775E4,7.125E3,7.07875E4,9.151487E3,2.125E5,8.2E3,1.706E5,1.39975E4,1.0652628E4,2.825E5,-9.3968E4,1.5735247E3,-6.4575E3,4.12E3,1.47E5,7.237E3,1.25E4,5.6253636E-1,5.5E0,7.664616E-1,3.3184946E3,1.5119091E4,1.060255E5,1.16E5,-2.005E2,1.41125E4,7.1041523E3,1.7E3,4.498921E-1,1.2127086E4,-6.301644E3,-2.2164363E3,-3.5084387E2,1.3200003E2,1.0227886E3,5.242673E2,9.1831903E2,2.8563643E3,1.3491073E3,1.6860741E3,2.8271139E4,2.4520942E3,1.1563875E3,2.264075E3,2.015552E3,2.4665488E3,2.7952344E3,6.235496E3,3.1572803E3,3.8952056E3,4.0192095E3,6.3702437E3,7.130933E3,5.192931E3,5.6727817E3,6.840221E3,7.4368994E3,9.507867E3,6.9098384E3,1.7399195E4],"split_indices":[9,9,9,9,9,9,5,9,0,2,9,9,9,0,0,1,9,9,0,9,0,2,0,9,5,0,2,6,0,9,9,3,5,2,28,26,28,0,0,9,3,6,29,0,0,28,0,0,0,0,0,0,0,0,0,0,0,0,0,0,0,0,0,0,0,0,0,0,0,0,0,0,0,0,0,0,0],"split_type":[0,0,0,0,0,0,0,0,0,0,0,0,0,0,0,0,0,0,0,0,0,0,0,0,0,0,0,0,0,0,0,0,0,0,0,0,0,0,0,0,0,0,0,0,0,0,0,0,0,0,0,0,0,0,0,0,0,0,0,0,0,0,0,0,0,0,0,0,0,0,0,0,0,0,0,0,0],"sum_hessian":[6.312E3,5.551E3,7.61E2,4.258E3,1.293E3,7.38E2,2.3E1,3.146E3,1.112E3,8.28E2,4.65E2,6.19E2,1.19E2,1.7E1,6E0,1.2E1,3.134E3,9.71E2,1.41E2,8.27E2,1E0,3E0,4.62E2,4.1E2,2.09E2,6.5E1,5.4E1,1.1E1,1E0,2.166E3,9.68E2,4.91E2,4.8E2,2.7E1,1.14E2,4.88E2,3.39E2,2E0,1E0,3.15E2,1.47E2,2.25E2,1.85E2,6.1E1,1.48E2,2.7E1,2.7E1,7E0,4E0,2.65E2,1.901E3,5.3E1,9.15E2,4.85E2,6E0,3.23E2,1.57E2,1E0,2.6E1,7.2E1,4.2E1,3.49E2,1.39E2,3.36E2,3E0,1.23E2,1.92E2,1.31E2,1.6E1,2.5E1,2E2,6E1,1.25E2,4.2E1,1.06E2,2E0,2.5E1],"tree_param":{"num_deleted":"0","num_feature":"43","num_nodes":"77","size_leaf_vector":"0"}},{"base_weights":[3.7523195E4,2.0110025E4,1.5857652E5,7.8993647E3,5.1425848E4,1.4622462E5,7.13076E5,7.4697007E3,8.5532875E5,4.1842812E4,7.279448E4,1.2799717E5,2.681622E5,5.3274206E5,8.945898E5,3.364708E3,2.3519258E4,2.215393E5,4.1467125E4,7.069894E4,8.965553E4,1.10926055E5,1.588182E5,2.2652616E5,3.0854862E5,-1.5719892E5,3.720335E3,2.22125E4,3.663264E5,3.4986797E4,4.8305953E4,6.874967E4,8.0378234E4,6.3531926E4,1.1642431E5,9.9904734E4,1.1856006E5,1.3942892E5,1.6634275E5,3.11371E5,8.794859E4,-1.6787552E5,-4.6569703E4,1.021036E3,9.788531E3,7.313524E4,2.1802812E4,-1.7975957E3,5.512872E5,3.0538965E4,3.929227E4,4.7707887E4,1.78454E5,5.1266047E4,7.045381E4,1.26748055E5,6.879976E4,9.203358E4,5.6134484E4,4.955572E4,1.2789371E5,8.989536E4,1.12906375E5,2.2115728E5,1.16452695E5,1.450202E5,1.7498375E5,3.1654322E5,1.2999716E5],"categories":[],"categories_nodes":[],"categories_segments":[],"categories_sizes":[],"default_left":[1,1,1,1,1,1,1,1,0,1,1,1,1,0,0,1,1,0,1,1,1,1,1,0,1,1,1,1,1,1,1,1,1,1,1,1,1,0,1,1,0,0,0,0,0,0,0,0,0,0,0,0,0,0,0,0,0,0,0,0,0,0,0,0,0,0,0,0,0],"id":11,"left_children":[1,3,5,7,9,11,13,15,-1,17,19,21,23,-1,-1,25,27,-1,29,31,33,35,37,-1,39,41,43,45,47,49,51,53,55,57,59,61,63,-1,65,67,-1,-1,-1,-1,-1,-1,-1,-1,-1,-1,-1,-1,-1,-1,-1,-1,-1,-1,-1,-1,-1,-1,-1,-1,-1,-1,-1,-1,-1],"loss_changes":[1.3274611E13,2.1057807E12,5.3202314E12,1.4369423E12,3.1333365E11,1.690422E12,7.987685E10,2.6101642E11,0E0,6.2981538E10,1.051512E10,3.3858624E11,9.825891E10,0E0,0E0,1.8085195E11,3.5337165E11,0E0,4.5641368E10,2.5679626E9,2.6868875E10,2.5091375E10,1.1675369E10,0E0,2.5008538E9,4.5006848E8,5.160298E10,1.5199633E10,2.0525656E11,9.370862E9,3.1728206E10,7.2333394E9,2.6714604E10,5.2640154E8,1.1301847E10,1.4055899E10,2.9162996E10,0E0,5.3933507E9,2.9412557E9,0E0,0E0,0E0,0E0,0E0,0E0,0E0,0E0,0E0,0E0,0E0,0E0,0E0,0E0,0E0,0E0,0E0,0E0,0E0,0E0,0E0,0E0,0E0,0E0,0E0,0E0,0E0,0E0,0E0],"parents":[2147483647,0,0,1,1,2,2,3,3,4,4,5,5,6,6,7,7,9,9,10,10,11,11,12,12,15,15,16,16,18,18,19,19,20,20,21,21,22,22,24,24,25,25,26,26,27,27,28,28,29,29,30,30,31,31,32,32,33,33,34,34,35,35,36,36,38,38,39,39],"right_children":[2,4,6,8,10,12,14,16,-1,18,20,22,24,-1,-1,26,28,-1,30,32,34,36,38,-1,40,42,44,46,48,50,52,54,56,58,60,62,64,-1,66,68,-1,-1,-1,-1,-1,-1,-1,-1,-1,-1,-1,-1,-1,-1,-1,-1,-1,-1,-1,-1,-1,-1,-1,-1,-1,-1,-1,-1,-1],"split_conditions":[1.31967E5,4.00815E4,5.5375E5,1.375E5,8.959E4,3.11124E5,1.033424E6,1.89995E4,4.2766438E4,4.00995E4,5.74995E4,2.041735E5,3.753085E5,2.6637104E4,4.4729492E4,-2.24875E5,1.25628E5,1.1076965E4,6.0399E4,5E-1,5.52165E4,7.75E2,2.23749E5,1.1326308E4,7.65E4,5.69905E4,3.64E3,-2.1475E4,4.3865E3,1.6555E3,1.26E5,9.27495E4,9.30375E4,9.5E0,3.75E1,1.68174E5,7E0,6.9714463E3,1.0475E3,5E-1,4.3974297E3,-8.393776E3,-2.328485E3,5.10518E1,4.8942657E2,3.6567622E3,1.0901406E3,-8.987978E1,2.756436E4,1.5269482E3,1.9646135E3,2.3853943E3,8.9227E3,2.5633025E3,3.5226907E3,6.337403E3,3.439988E3,4.601679E3,2.8067244E3,2.477786E3,6.3946855E3,4.494768E3,5.645319E3,1.1057864E4,5.822635E3,7.2510103E3,8.7491875E3,1.5827161E4,6.499858E3],"split_indices":[9,9,5,4,9,9,5,9,0,9,6,9,9,0,0,6,11,0,9,16,11,0,9,0,0,5,9,6,0,6,4,9,9,13,10,9,13,0,0,39,0,0,0,0,0,0,0,0,0,0,0,0,0,0,0,0,0,0,0,0,0,0,0,0,0,0,0,0,0],"split_type":[0,0,0,0,0,0,0,0,0,0,0,0,0,0,0,0,0,0,0,0,0,0,0,0,0,0,0,0,0,0,0,0,0,0,0,0,0,0,0,0,0,0,0,0,0,0,0,0,0,0,0,0,0,0,0,0,0,0,0,0,0,0,0,0,0,0,0,0,0],"sum_hessian":[6.298E3,5.507E3,7.91E2,3.963E3,1.544E3,7.75E2,1.6E1,3.962E3,1E0,1.068E3,4.76E2,6.76E2,9.9E1,1E1,6E0,3.156E3,8.06E2,1E0,1.067E3,4.28E2,4.8E1,4.38E2,2.38E2,5.2E1,4.7E1,6E0,3.15E3,8.04E2,2E0,5.51E2,5.16E2,3.63E2,6.5E1,2.6E1,2.2E1,1.85E2,2.53E2,7.2E1,1.66E2,4.6E1,1E0,5E0,1E0,2.181E3,9.69E2,5E0,7.99E2,1E0,1E0,2.75E2,2.76E2,5.15E2,1E0,3.5E1,3.28E2,1.1E1,5.4E1,3E0,2.3E1,4E0,1.8E1,1.09E2,7.6E1,3E0,2.5E2,5.3E1,1.13E2,4.4E1,2E0],"tree_param":{"num_deleted":"0","num_feature":"43","num_nodes":"69","size_leaf_vector":"0"}},{"base_weights":[3.496353E4,1.8989639E4,1.501659E5,6.9068525E3,4.7841723E4,1.3395817E5,4.6894778E5,6.484318E3,8.3394556E5,3.737143E4,6.5018902E4,1.09813945E5,1.825896E5,3.34736E5,6.071537E5,1.142689E3,1.6076401E4,3.7068098E4,1.7399266E5,5.292501E4,7.045899E4,9.768247E4,1.2066846E5,1.6805427E5,2.4450947E5,1.5449784E5,6.2578856E5,-1.6433086E5,1.5360641E3,1.5343956E4,2.6896262E5,3.1394805E4,4.28365E4,4.9944438E4,5.889825E4,9.15615E4,6.7149586E4,8.646675E4,1.1071058E5,1.8398702E5,1.1736007E5,1.4145389E5,1.7925405E5,2.878414E5,2.0656561E5,-1.224893E4,2.5004204E3,1.0886677E4,2.0067082E4,2.801714E2,5.37505E5,2.7711604E4,4.4716586E4,4.2082227E4,9.0486E4,4.9732504E4,6.825888E4,8.08599E4,1.3163272E5,1.6270106E5,6.566887E4,1.7621464E5,8.445188E4,8.0983336E4,1.2867306E5,8.47444E4,2.2859073E5,1.0988895E5,1.2610836E5,1.042352E5,1.4979042E5,1.5869411E5,2.0022566E5,2.2651055E5,4.019995E5],"categories":[],"categories_nodes":[],"categories_segments":[],"categories_sizes":[],"default_left":[1,1,1,1,1,1,1,1,0,1,1,1,1,0,1,1,1,1,0,1,1,1,1,1,1,0,0,0,1,1,1,1,1,0,1,1,1,1,1,1,1,1,1,1,0,0,0,0,0,0,0,0,0,0,0,0,0,0,0,0,0,0,0,0,0,0,0,0,0,0,0,0,0,0,0],"id":12,"left_children":[1,3,5,7,9,11,13,15,-1,17,19,21,23,-1,25,27,29,31,-1,33,35,37,39,41,43,-1,-1,-1,45,47,49,51,53,-1,55,57,59,61,63,65,67,69,71,73,-1,-1,-1,-1,-1,-1,-1,-1,-1,-1,-1,-1,-1,-1,-1,-1,-1,-1,-1,-1,-1,-1,-1,-1,-1,-1,-1,-1,-1,-1,-1],"loss_changes":[1.1680771E13,1.9438872E12,3.9310621E12,1.3686402E12,2.9360338E11,8.4531164E11,4.8307215E11,2.0139565E11,0E0,3.6028416E10,3.7193515E10,5.3395063E10,1.7761514E11,0E0,4.6714585E10,1.6467776E11,2.5630002E11,3.216638E10,0E0,5.656412E8,2.3602135E10,2.534985E10,3.2244236E10,3.4227618E10,1.288595E10,0E0,0E0,0E0,3.354391E10,2.9317923E10,2.884599E11,2.4275583E10,1.4342226E10,0E0,1.7531535E9,1.2941656E10,4.194815E10,9.168749E9,4.671498E10,2.9320708E10,2.2858957E9,4.2441114E9,2.7296006E10,3.4968306E10,0E0,0E0,0E0,0E0,0E0,0E0,0E0,0E0,0E0,0E0,0E0,0E0,0E0,0E0,0E0,0E0,0E0,0E0,0E0,0E0,0E0,0E0,0E0,0E0,0E0,0E0,0E0,0E0,0E0,0E0,0E0],"parents":[2147483647,0,0,1,1,2,2,3,3,4,4,5,5,6,6,7,7,9,9,10,10,11,11,12,12,14,14,15,15,16,16,17,17,19,19,20,20,21,21,22,22,23,23,24,24,28,28,29,29,30,30,31,31,32,32,34,34,35,35,36,36,37,37,38,38,39,39,40,40,41,41,42,42,43,43],"right_children":[2,4,6,8,10,12,14,16,-1,18,20,22,24,-1,26,28,30,32,-1,34,36,38,40,42,44,-1,-1,-1,46,48,50,52,54,-1,56,58,60,62,64,66,68,70,72,74,-1,-1,-1,-1,-1,-1,-1,-1,-1,-1,-1,-1,-1,-1,-1,-1,-1,-1,-1,-1,-1,-1,-1,-1,-1,-1,-1,-1,-1,-1,-1],"split_conditions":[1.32325E5,3.68495E4,4.706245E5,1.375E5,7.96045E4,2.235375E5,6.5501E5,7.147E3,4.1697277E4,1.2E5,9.27495E4,1.67236E5,3.48849E5,1.67368E4,3.200815E5,-2.15928E5,1.25628E5,5.369E4,8.699633E3,1.92E4,3.045E4,1.35E1,3.13E4,5.90055E4,5E-1,7.724892E3,3.1289428E4,-8.216543E3,-1.0075E4,1.99555E4,4.3865E3,1.33625E4,7.664616E-1,2.497222E3,4.875E4,2.8E4,9.2924E4,1.33049E5,1E3,2.25E3,3.985E4,2.36049E5,5.05E1,5E-1,1.032828E4,-6.124465E2,1.2502102E2,5.4433386E2,1.0033541E3,1.400857E1,2.687525E4,1.3855802E3,2.2358293E3,2.1041113E3,4.5243003E3,2.4866252E3,3.412944E3,4.0429949E3,6.581636E3,8.135053E3,3.2834434E3,8.810732E3,4.222594E3,4.0491667E3,6.4336533E3,4.23722E3,1.1429537E4,5.4944478E3,6.305418E3,5.2117603E3,7.489521E3,7.9347056E3,1.0011283E4,1.1325527E4,2.0099975E4],"split_indices":[9,9,9,4,9,9,9,9,0,4,9,9,9,0,5,8,11,9,0,5,4,13,4,8,19,0,0,0,9,9,0,5,28,0,3,0,9,9,0,4,29,9,10,36,0,0,0,0,0,0,0,0,0,0,0,0,0,0,0,0,0,0,0,0,0,0,0,0,0,0,0,0,0,0,0],"split_type":[0,0,0,0,0,0,0,0,0,0,0,0,0,0,0,0,0,0,0,0,0,0,0,0,0,0,0,0,0,0,0,0,0,0,0,0,0,0,0,0,0,0,0,0,0,0,0,0,0,0,0,0,0,0,0,0,0,0,0,0,0,0,0,0,0,0,0,0,0,0,0,0,0,0,0],"sum_hessian":[6.348E3,5.576E3,7.72E2,3.931E3,1.645E3,7.36E2,3.6E1,3.93E3,1E0,1.024E3,6.21E2,4.94E2,2.42E2,2E1,1.6E1,2.525E3,1.405E3,1.023E3,1E0,1.96E2,4.25E2,2.38E2,2.56E2,1.99E2,4.3E1,1E0,1.5E1,5E0,2.52E3,1.402E3,3E0,5.19E2,5.04E2,1.37E2,5.9E1,5.4E1,3.71E2,1.32E2,1.06E2,1E1,2.46E2,6.3E1,1.36E2,1.7E1,2.6E1,1.64E2,2.356E3,7.23E2,6.79E2,2E0,1E0,4.09E2,1.1E2,4.98E2,6E0,3.3E1,2.6E1,4.5E1,9E0,4E0,3.67E2,1E0,1.31E2,4.2E1,6.4E1,4E0,6E0,1.4E2,1.06E2,1.4E1,4.9E1,7.3E1,6.3E1,1.3E1,4E0],"tree_param":{"num_deleted":"0","num_feature":"43","num_nodes":"75","size_leaf_vector":"0"}},{"base_weights":[3.4216355E4,2.3491316E4,1.5463755E5,1.4081467E4,8.540501E4,1.3033006E5,4.436767E5,7.1285986E3,3.403442E4,6.673976E4,1.15195266E5,1.0373941E5,2.0544306E5,3.7399947E5,8.566175E5,6.735572E3,2.1744648E5,2.4517053E4,4.690806E4,6.493341E4,1.7874725E5,1.0077413E5,1.4330352E5,8.657776E4,1.5541061E5,8.1309694E5,1.939854E5,1.2126807E5,3.852993E5,3.7562866E3,2.4401355E4,4.14354E5,5.581267E4,1.7514639E4,3.1381602E4,4.1127625E4,6.004771E4,5.3973215E4,7.628011E4,1.9925916E5,2.7837863E4,7.578408E4,1.0758432E5,1.2620058E5,1.598938E5,7.2817055E4,1.0974973E5,1.0230896E5,1.6325078E5,1.7695602E5,2.4144561E5,8.570294E4,3.917809E5,-1.7951073E5,3.9258657E3,1.9780422E4,3.4776727E4,5.2406738E5,9.746364E4,1.0651551E4,1.1822858E5,-4.725961E4,1.816058E4,-5.5602554E3,3.2290303E4,3.4322016E4,4.6230492E4,1.121211E5,5.7762508E4,4.4045176E4,6.0379438E4,6.691281E4,8.811892E4,9.6732734E4,1.3251483E5,1.1222056E5,1.5413525E5,1.2929069E5,1.7846192E5,6.2318965E4,8.271258E4,-5.411956E4,1.119741E5,1.05866695E5,2.8029188E4,1.4678858E5,2.0722612E5,1.6209712E5,2.1642311E5,4.8417156E4,2.464322E5,3.9754506E5,1.0366389E5],"categories":[],"categories_nodes":[],"categories_segments":[],"categories_sizes":[],"default_left":[1,1,1,1,1,1,1,1,1,1,1,1,1,1,0,1,1,1,1,1,1,1,1,1,1,0,1,0,1,1,1,1,1,1,1,1,1,1,1,0,0,0,1,1,1,1,1,1,1,1,1,0,1,0,0,0,0,0,0,0,0,0,0,0,0,0,0,0,0,0,0,0,0,0,0,0,0,0,0,0,0,0,0,0,0,0,0,0,0,0,0,0,0],"id":13,"left_children":[1,3,5,7,9,11,13,15,17,19,21,23,25,27,-1,29,31,33,35,37,39,41,43,45,47,-1,49,-1,51,53,55,57,59,61,63,65,67,69,71,-1,-1,-1,73,75,77,79,81,83,85,87,89,-1,91,-1,-1,-1,-1,-1,-1,-1,-1,-1,-1,-1,-1,-1,-1,-1,-1,-1,-1,-1,-1,-1,-1,-1,-1,-1,-1,-1,-1,-1,-1,-1,-1,-1,-1,-1,-1,-1,-1,-1,-1],"loss_changes":[8.227236E12,3.4087468E12,3.602624E12,7.047847E11,4.2157684E11,9.4138794E11,8.3052934E11,3.101659E11,1.597229E11,8.490241E10,1.0554311E11,3.040063E11,7.1255825E11,5.608466E10,0E0,1.9801293E11,1.996622E11,3.5838165E10,3.9836058E10,5.44574E10,1.6121135E10,2.571423E10,7.627997E9,7.8420115E10,1.993461E10,0E0,5.7493946E10,0E0,3.2447136E10,1.0083888E11,2.5345622E10,5.3223817E10,1.2834544E10,1.6632103E10,1.2969378E10,1.1957174E10,1.3515293E10,1.2795707E10,1.9499188E10,0E0,0E0,0E0,2.8843835E10,3.400794E9,3.065774E9,1.2817334E10,4.21462E10,7.323976E8,2.3876338E10,2.0629684E10,1.6945119E10,0E0,1.3594264E10,0E0,0E0,0E0,0E0,0E0,0E0,0E0,0E0,0E0,0E0,0E0,0E0,0E0,0E0,0E0,0E0,0E0,0E0,0E0,0E0,0E0,0E0,0E0,0E0,0E0,0E0,0E0,0E0,0E0,0E0,0E0,0E0,0E0,0E0,0E0,0E0,0E0,0E0,0E0,0E0],"parents":[2147483647,0,0,1,1,2,2,3,3,4,4,5,5,6,6,7,7,8,8,9,9,10,10,11,11,12,12,13,13,15,15,16,16,17,17,18,18,19,19,20,20,21,21,22,22,23,23,24,24,26,26,28,28,29,29,30,30,31,31,32,32,33,33,34,34,35,35,36,36,37,37,38,38,42,42,43,43,44,44,45,45,46,46,47,47,48,48,49,49,50,50,52,52],"right_children":[2,4,6,8,10,12,14,16,18,20,22,24,26,28,-1,30,32,34,36,38,40,42,44,46,48,-1,50,-1,52,54,56,58,60,62,64,66,68,70,72,-1,-1,-1,74,76,78,80,82,84,86,88,90,-1,92,-1,-1,-1,-1,-1,-1,-1,-1,-1,-1,-1,-1,-1,-1,-1,-1,-1,-1,-1,-1,-1,-1,-1,-1,-1,-1,-1,-1,-1,-1,-1,-1,-1,-1,-1,-1,-1,-1,-1,-1],"split_conditions":[7.16015E4,7.275E4,2.96067E5,2.4475E4,1.295E5,1.2965E5,1.150749E6,1.222515E5,7.688E3,4.7E4,1.905E5,1.3605E5,-1.177075E5,3.55E1,4.2830875E4,1.38195E4,1.29444E5,4.036E4,3.74E4,1.09505E4,7.5E4,4.324E3,2.2905E5,6.7E4,1.75E3,4.0654848E4,3.07825E4,6.063404E3,1.6025E5,-2.25875E5,5.4E3,8.1365E3,1.8E4,-5.28755E4,-2.51665E4,4.15E1,3.78745E4,8.775E4,9.95E4,9.962958E3,1.3918932E3,3.7892039E3,1.3E5,3.57495E4,4.85E1,8.8884E4,-1.8059E5,1.028655E5,2.08671E5,2.385E5,7.55775E4,4.285147E3,1.143E5,-8.975537E3,1.9629329E2,9.890211E2,1.7388363E3,2.620337E4,4.873182E3,5.325776E2,5.911429E3,-2.3629805E3,9.08029E2,-2.780128E2,1.6145151E3,1.7161008E3,2.3115247E3,5.606055E3,2.8881255E3,2.2022588E3,3.018972E3,3.3456406E3,4.4059463E3,4.8366367E3,6.6257417E3,5.6110283E3,7.7067627E3,6.4645347E3,8.923097E3,3.1159482E3,4.135629E3,-2.705978E3,5.598705E3,5.293335E3,1.4014594E3,7.339429E3,1.0361307E4,8.1048564E3,1.0821155E4,2.420858E3,1.232161E4,1.9877254E4,5.183195E3],"split_indices":[7,4,7,4,4,4,5,11,8,0,4,8,6,10,0,7,11,4,7,8,3,7,4,4,4,0,0,0,6,6,0,0,1,6,6,10,7,4,4,0,0,0,3,7,10,8,6,11,8,4,7,0,1,0,0,0,0,0,0,0,0,0,0,0,0,0,0,0,0,0,0,0,0,0,0,0,0,0,0,0,0,0,0,0,0,0,0,0,0,0,0,0,0],"split_type":[0,0,0,0,0,0,0,0,0,0,0,0,0,0,0,0,0,0,0,0,0,0,0,0,0,0,0,0,0,0,0,0,0,0,0,0,0,0,0,0,0,0,0,0,0,0,0,0,0,0,0,0,0,0,0,0,0,0,0,0,0,0,0,0,0,0,0,0,0,0,0,0,0,0,0,0,0,0,0,0,0,0,0,0,0,0,0,0,0,0,0,0,0],"sum_hessian":[6.372E3,5.852E3,5.2E2,5.081E3,7.71E2,4.81E2,3.9E1,3.769E3,1.312E3,4.76E2,2.95E2,3.57E2,1.24E2,3.5E1,4E0,3.763E3,6E0,7.56E2,5.56E2,4.7E2,6E0,1.98E2,9.7E1,2.7E2,8.7E1,1E0,1.23E2,2E0,3.3E1,3.221E3,5.42E2,2E0,4E0,3.76E2,3.8E2,3.89E2,1.67E2,2.42E2,2.28E2,5E0,1E0,4.5E1,1.53E2,5.2E1,4.5E1,1.72E2,9.8E1,1.3E1,7.4E1,9.4E1,2.9E1,1E0,3.2E1,2E0,3.219E3,3.77E2,1.65E2,1E0,1E0,3E0,1E0,3E0,3.73E2,9E0,3.71E2,1.7E2,2.19E2,5E0,1.62E2,9.8E1,1.44E2,1.31E2,9.7E1,1.1E2,4.3E1,3.8E1,1.4E1,2E1,2.5E1,8.7E1,8.5E1,1E0,9.7E1,1.2E1,1E0,5.7E1,1.7E1,7.2E1,2.2E1,1E0,2.8E1,3.1E1,1E0],"tree_param":{"num_deleted":"0","num_feature":"43","num_nodes":"93","size_leaf_vector":"0"}},{"base_weights":[3.2159494E4,1.704172E4,1.3933644E5,2.8478347E3,3.7044043E4,1.24516164E5,5.33449E5,-1.159972E5,3.3254246E3,7.927695E5,3.63702E4,1.1024694E5,2.1568011E5,4.256631E5,7.959977E5,-1.6856116E5,-7.390644E4,7.20003E2,8.895111E3,2.657024E4,5.6128367E4,9.1200195E4,1.3340281E5,1.9289819E5,2.7722125E5,-1.5300232E4,1.168413E3,6.2796987E3,1.0568804E4,2.5723031E4,1.4183972E5,4.6456816E4,6.350482E4,8.7152E4,1.10512945E5,1.2719495E5,1.6845612E5,1.4215492E5,2.0288197E5,4.414707E5,2.4374431E5,-1.677002E4,3.5708617E4,6.2642074E4,1.081689E3,3.9023516E3,7.525632E3,1.013171E4,6.282949E4,1.8780732E4,3.216765E4,5.109657E5,5.3830547E4,4.475237E4,6.1090742E4,1.2970012E5,6.2418316E4,8.2920234E4,1.1544824E5,2.2821108E5,1.02379484E5,1.140747E5,1.4403123E5,3.1147975E5,1.4457575E5,1.6105395E5,2.1896545E5],"categories":[],"categories_nodes":[],"categories_segments":[],"categories_sizes":[],"default_left":[1,1,1,1,1,1,1,1,1,0,1,1,1,0,0,0,0,1,1,1,1,1,1,1,1,1,1,1,1,1,1,1,1,1,1,1,1,0,1,0,0,0,0,0,0,0,0,0,0,0,0,0,0,0,0,0,0,0,0,0,0,0,0,0,0,0,0],"id":14,"left_children":[1,3,5,7,9,11,13,15,17,-1,19,21,23,-1,-1,-1,-1,25,27,29,31,33,35,37,39,41,43,45,47,49,51,53,55,57,59,61,63,-1,65,-1,-1,-1,-1,-1,-1,-1,-1,-1,-1,-1,-1,-1,-1,-1,-1,-1,-1,-1,-1,-1,-1,-1,-1,-1,-1,-1,-1],"loss_changes":[1.0236155E13,1.5724755E12,4.495286E12,1.8434228E11,1.1419132E12,9.570542E11,4.5354634E11,1.6304177E10,4.685084E10,0E0,4.4346848E11,2.7627723E11,8.812862E10,0E0,0E0,0E0,0E0,1.5829053E10,4.437983E9,1.4654826E11,5.1340902E10,1.867042E10,4.2331537E10,1.0168566E10,2.9858202E10,5.097166E9,1.1351763E10,1.1672852E9,1.3663019E10,6.775931E10,3.2984564E11,5.571936E9,2.2758425E10,2.6828603E10,3.3116193E10,3.9456866E10,9.500138E10,0E0,6.444548E9,0E0,0E0,0E0,0E0,0E0,0E0,0E0,0E0,0E0,0E0,0E0,0E0,0E0,0E0,0E0,0E0,0E0,0E0,0E0,0E0,0E0,0E0,0E0,0E0,0E0,0E0,0E0,0E0],"parents":[2147483647,0,0,1,1,2,2,3,3,4,4,5,5,6,6,7,7,8,8,10,10,11,11,12,12,17,17,18,18,19,19,20,20,21,21,22,22,23,23,24,24,25,25,26,26,27,27,28,28,29,29,30,30,31,31,32,32,33,33,34,34,35,35,36,36,38,38],"right_children":[2,4,6,8,10,12,14,16,18,-1,20,22,24,-1,-1,-1,-1,26,28,30,32,34,36,38,40,42,44,46,48,50,52,54,56,58,60,62,64,-1,66,-1,-1,-1,-1,-1,-1,-1,-1,-1,-1,-1,-1,-1,-1,-1,-1,-1,-1,-1,-1,-1,-1,-1,-1,-1,-1,-1,-1],"split_conditions":[1.31967E5,1.9875E4,5.73428E5,-7.105E4,-1.177075E5,2.982985E5,1.0526735E6,-2.933945E5,3.5295E3,3.9638477E4,7.07875E4,1.881995E5,2.17943E5,2.1283154E4,3.9799887E4,-8.428058E3,-3.695322E3,-1.765E4,1.0495E3,1.207005E5,9.27495E4,1.29E5,1.510235E5,4.15E3,2.28274E5,7.75E3,-1.725E4,7.94E3,6.5E0,3.85645E4,2.45885E4,1.75E1,9.2924E4,1.75E1,-1.2625E4,2.302535E5,7.7224E4,7.107746E3,2.36E5,2.2073535E4,1.2187216E4,-8.38501E2,1.7854309E3,3.1321038E3,5.408445E1,1.9511758E2,3.762816E2,5.065855E2,3.1414744E3,9.390366E2,1.6083826E3,2.5548285E4,2.6915273E3,2.2376187E3,3.054537E3,6.485006E3,3.1209158E3,4.1460117E3,5.772412E3,1.1410554E4,5.118974E3,5.7037354E3,7.201562E3,1.5573987E4,7.2287876E3,8.0526978E3,1.0948272E4],"split_indices":[9,9,9,9,6,9,5,9,9,0,9,9,29,0,0,0,0,9,5,11,9,3,8,0,29,0,9,9,12,9,9,13,9,13,6,9,5,0,2,0,0,0,0,0,0,0,0,0,0,0,0,0,0,0,0,0,0,0,0,0,0,0,0,0,0,0,0],"split_type":[0,0,0,0,0,0,0,0,0,0,0,0,0,0,0,0,0,0,0,0,0,0,0,0,0,0,0,0,0,0,0,0,0,0,0,0,0,0,0,0,0,0,0,0,0,0,0,0,0,0,0,0,0,0,0,0,0,0,0,0,0,0,0,0,0,0,0],"sum_hessian":[6.318E3,5.538E3,7.8E2,3.24E3,2.298E3,7.53E2,2.7E1,1.2E1,3.228E3,1E0,2.297E3,6.53E2,1E2,2.1E1,6E0,4E0,8E0,2.2E3,1.028E3,1.537E3,7.6E2,3.61E2,2.92E2,7.6E1,2.4E1,5.9E1,2.141E3,4.03E2,6.25E2,1.527E3,1E1,3.32E2,4.28E2,3.03E2,5.8E1,2.52E2,4E1,1.5E1,6.1E1,2E0,2.2E1,5.8E1,1E0,2E0,2.139E3,1.4E2,2.63E2,6.21E2,4E0,7.37E2,7.9E2,1E0,9E0,3.01E2,3.1E1,5E0,4.23E2,2.67E2,3.6E1,2E0,5.6E1,1.46E2,1.06E2,4E0,3.6E1,2E1,4.1E1],"tree_param":{"num_deleted":"0","num_feature":"43","num_nodes":"67","size_leaf_vector":"0"}},{"base_weights":[3.068231E4,1.6164386E4,1.3086476E5,6.0182466E3,4.2086684E4,1.19542805E5,5.698405E5,5.6331797E3,7.7295025E5,3.5150242E4,6.060996E4,1.03914086E5,2.0640052E5,4.331161E5,7.618835E5,-1.436209E5,5.8934214E3,2.6626863E4,3.993077E4,1.8998486E5,5.9549125E4,9.1510586E4,1.3254275E5,1.8345811E5,2.6834772E5,4.8160447E5,1.9149402E5,-1.5445422E5,-3.931052E4,1.7740635E3,1.4775504E4,1.3153189E5,2.6052986E4,3.953291E4,1.6478622E5,2.8283406E5,2.1432227E3,5.733943E4,7.8228984E4,8.643508E4,1.0642683E5,1.1625879E5,1.4798134E5,1.6911217E5,2.158631E5,1.8307405E5,2.9103478E5,-3.4355277E4,2.10732E3,1.2386617E4,2.1704127E4,2.4928863E4,4.9273855E4,3.6782016E4,4.6466098E4,4.93704E4,6.2168688E4,6.5070414E4,1.13829375E5,7.82941E4,9.4688836E4,2.0495136E5,9.912317E4,1.509582E5,7.668036E4,2.6883694E5,1.6190777E5],"categories":[],"categories_nodes":[],"categories_segments":[],"categories_sizes":[],"default_left":[1,1,1,1,1,1,1,1,0,1,1,1,1,1,0,1,1,1,1,1,1,1,1,1,1,0,0,0,0,1,1,0,1,1,0,0,0,1,1,1,1,0,1,1,0,0,0,0,0,0,0,0,0,0,0,0,0,0,0,0,0,0,0,0,0,0,0],"id":15,"left_children":[1,3,5,7,9,11,13,15,-1,17,19,21,23,25,-1,27,29,31,33,35,37,39,41,43,45,-1,-1,-1,-1,47,49,-1,51,53,-1,-1,-1,55,57,59,61,-1,63,65,-1,-1,-1,-1,-1,-1,-1,-1,-1,-1,-1,-1,-1,-1,-1,-1,-1,-1,-1,-1,-1,-1,-1],"loss_changes":[9.261222E12,1.4631414E12,3.937751E12,1.176926E12,1.9894973E11,1.0468836E12,1.951552E11,1.5617615E11,0E0,4.5428113E10,4.701605E10,2.2543021E11,1.19894704E11,7.179783E10,0E0,1.8384978E9,1.4607158E11,2.1436826E10,2.9698556E10,5.171667E10,1.2974424E10,2.6383745E10,3.3076281E10,5.334106E9,4.7575204E9,0E0,0E0,0E0,0E0,3.2930505E10,2.0669039E10,0E0,9.526149E9,1.2175671E10,0E0,0E0,0E0,1.1631854E10,1.2267979E10,1.6507208E10,6.2437196E10,0E0,9.437315E9,4.609802E9,0E0,0E0,0E0,0E0,0E0,0E0,0E0,0E0,0E0,0E0,0E0,0E0,0E0,0E0,0E0,0E0,0E0,0E0,0E0,0E0,0E0,0E0,0E0],"parents":[2147483647,0,0,1,1,2,2,3,3,4,4,5,5,6,6,7,7,9,9,10,10,11,11,12,12,13,13,15,15,16,16,17,17,18,18,19,19,20,20,21,21,22,22,23,23,24,24,29,29,30,30,32,32,33,33,37,37,38,38,39,39,40,40,42,42,43,43],"right_children":[2,4,6,8,10,12,14,16,-1,18,20,22,24,26,-1,28,30,32,34,36,38,40,42,44,46,-1,-1,-1,-1,48,50,-1,52,54,-1,-1,-1,56,58,60,62,-1,64,66,-1,-1,-1,-1,-1,-1,-1,-1,-1,-1,-1,-1,-1,-1,-1,-1,-1,-1,-1,-1,-1,-1,-1],"split_conditions":[1.31967E5,3.975E4,6.552E5,8.16055E4,9.28795E4,2.9575E5,1.033424E6,-2.24875E5,3.864751E4,5.369E4,9.2924E4,2.12674E5,2.25274E5,4.674E4,3.8094176E4,1E3,1.0077E4,3.981E4,1.70025E5,6E3,7.04E4,1.80005E4,6.45555E4,3.792E5,4.55E1,2.4080225E4,9.574701E3,-7.722711E3,-1.965526E3,-3.6537E4,3.0025E4,6.5765947E3,1.94E4,5.29395E4,8.239312E3,1.4141703E4,1.0716113E2,1.061245E5,2.8E4,1.67777E5,2.3E3,5.8129395E3,8.09E4,1.1E1,1.0793155E4,9.153702E3,1.4551739E4,-1.7177639E3,1.05366005E2,6.193309E2,1.0852064E3,1.2464432E3,2.4636929E3,1.8391008E3,2.323305E3,2.46852E3,3.1084343E3,3.2535208E3,5.6914688E3,3.914705E3,4.734442E3,1.0247568E4,4.9561587E3,7.54791E3,3.834018E3,1.3441847E4,8.095388E3],"split_indices":[9,9,9,5,9,9,5,6,0,9,9,9,29,0,0,0,9,9,5,0,29,0,11,9,10,0,0,0,0,9,9,0,0,11,0,0,0,9,0,9,5,0,1,13,0,0,0,0,0,0,0,0,0,0,0,0,0,0,0,0,0,0,0,0,0,0,0],"split_type":[0,0,0,0,0,0,0,0,0,0,0,0,0,0,0,0,0,0,0,0,0,0,0,0,0,0,0,0,0,0,0,0,0,0,0,0,0,0,0,0,0,0,0,0,0,0,0,0,0,0,0,0,0,0,0,0,0,0,0,0,0,0,0,0,0,0,0],"sum_hessian":[6.368E3,5.563E3,8.05E2,3.999E3,1.564E3,7.86E2,1.9E1,3.998E3,1E0,1.14E3,4.24E2,6.68E2,1.18E2,1.3E1,6E0,6E0,3.992E3,4.12E2,7.28E2,2E0,4.22E2,4.69E2,1.99E2,8.9E1,2.9E1,1E1,3E0,5E0,1E0,2.728E3,1.264E3,1E0,4.11E2,7.27E2,1E0,1E0,1E0,3.81E2,4.1E1,3.55E2,1.14E2,1.01E2,9.8E1,6.6E1,2.3E1,8E0,2.1E1,2.4E1,2.704E3,9.42E2,3.22E2,3.94E2,1.7E1,5.25E2,2.02E2,1.48E2,2.33E2,3.2E1,9E0,1.84E2,1.71E2,6E0,1.08E2,9.3E1,5E0,2E0,6.4E1],"tree_param":{"num_deleted":"0","num_feature":"43","num_nodes":"67","size_leaf_vector":"0"}},{"base_weights":[2.890578E4,1.5541809E4,1.2803828E5,2.6849246E3,3.3528113E4,1.1695534E5,4.8997016E5,-6.72256E4,3.0297588E3,7.536265E5,3.2893434E4,1.03182664E5,2.017062E5,6.0139294E5,3.4700178E5,-7.618368E4,3.3572824E4,-5.6653546E2,6.8274766E3,2.4428967E4,5.046354E4,8.389779E4,1.2411637E5,1.7352477E5,2.438616E5,6.364786E5,1.2526784E5,-4.944874E4,-1.0804464E5,-6.6516523E3,5.0467346E2,5.539692E3,1.1201971E4,2.371082E4,1.6159317E5,4.0738355E4,5.687121E4,1.7830602E5,8.249068E4,1.1932818E5,1.6474639E5,1.4289539E5,1.9482069E5,1.6035275E5,2.7194472E5,-7.8986763E3,1.20018E4,-2.5431648E2,3.799363E3,3.0018176E3,7.1193228E3,9.837495E3,2.3095277E4,1.2365312E5,2.3310459E4,4.2425953E4,4.9788188E5,1.8898494E5,3.9621695E4,5.308614E4,8.762294E4,7.966714E4,1.219899E5,1.5897745E5,1.1537753E5,2.1264344E5,1.3256055E5,1.1624858E5,2.070684E5,3.6239816E5,2.2216612E5],"categories":[],"categories_nodes":[],"categories_segments":[],"categories_sizes":[],"default_left":[1,1,1,1,1,1,1,1,1,0,1,1,1,1,0,1,0,1,1,1,1,1,1,1,1,0,0,0,0,1,1,1,1,1,1,1,1,0,1,1,1,0,1,0,1,0,0,0,0,0,0,0,0,0,0,0,0,0,0,0,0,0,0,0,0,0,0,0,0,0,0],"id":16,"left_children":[1,3,5,7,9,11,13,15,17,-1,19,21,23,25,-1,27,-1,29,31,33,35,37,39,41,43,-1,-1,-1,-1,45,47,49,51,53,55,57,59,-1,61,63,65,-1,67,-1,69,-1,-1,-1,-1,-1,-1,-1,-1,-1,-1,-1,-1,-1,-1,-1,-1,-1,-1,-1,-1,-1,-1,-1,-1,-1,-1],"loss_changes":[8.374745E12,1.2886544E12,2.9551567E12,7.857729E10,1.03689434E12,8.312775E11,1.4177429E11,1.7005068E10,4.420022E10,0E0,3.4409887E11,2.4392027E11,7.7671694E10,1.040266E11,0E0,7.4343383E9,0E0,1.0843508E10,8.804925E9,1.5072107E11,4.4669207E10,2.9262086E10,3.870399E10,1.3907001E10,4.5510033E10,0E0,0E0,0E0,0E0,5.8868623E9,3.5393667E9,4.861473E9,5.566243E9,5.9618165E10,2.994736E11,4.267108E10,4.7960162E10,0E0,2.6862682E10,2.4263786E10,1.651848E10,0E0,9.609937E9,0E0,4.105883E10,0E0,0E0,0E0,0E0,0E0,0E0,0E0,0E0,0E0,0E0,0E0,0E0,0E0,0E0,0E0,0E0,0E0,0E0,0E0,0E0,0E0,0E0,0E0,0E0,0E0,0E0],"parents":[2147483647,0,0,1,1,2,2,3,3,4,4,5,5,6,6,7,7,8,8,10,10,11,11,12,12,13,13,15,15,17,17,18,18,19,19,20,20,21,21,22,22,23,23,24,24,29,29,30,30,31,31,32,32,33,33,34,34,35,35,36,36,38,38,39,39,40,40,42,42,44,44],"right_children":[2,4,6,8,10,12,14,16,18,-1,20,22,24,26,-1,28,-1,30,32,34,36,38,40,42,44,-1,-1,-1,-1,46,48,50,52,54,56,58,60,-1,62,64,66,-1,68,-1,70,-1,-1,-1,-1,-1,-1,-1,-1,-1,-1,-1,-1,-1,-1,-1,-1,-1,-1,-1,-1,-1,-1,-1,-1,-1,-1],"split_conditions":[1.345985E5,1.9875E4,5.73428E5,-5.282E4,-1.177075E5,3.05775E5,1.1E2,7.5E2,3.425E2,3.7681324E4,7.1725E4,1.881995E5,1.47975E5,5E-1,1.735009E4,5.03535E4,1.6786412E3,-7.173E3,4.0551E4,1.240485E5,9.27495E4,1.352045E5,1.054335E5,2.345E5,1.725E4,3.1823932E4,6.263392E3,-2.472437E3,-5.402232E3,6.43425E4,3.20535E4,3.5495E3,4.85E1,-2.1375E4,4.8865E3,7.1865E4,1.1775E5,8.915301E3,1.02714E5,4.6E4,5E-1,7.1447695E3,4.5204E4,8.0176377E3,6.64305E4,-3.949338E2,6.0009E2,-1.2715824E1,1.8996815E2,1.5009088E2,3.5596616E2,4.9187476E2,1.1547639E3,6.182656E3,1.165523E3,2.1212976E3,2.4894094E4,9.449247E3,1.9810848E3,2.6543071E3,4.381147E3,3.9833572E3,6.099495E3,7.9488726E3,5.7688765E3,1.0632172E4,6.6280273E3,5.812429E3,1.0353421E4,1.8119908E4,1.1108307E4],"split_indices":[9,9,9,9,6,9,1,1,9,0,9,9,5,36,0,11,0,9,11,11,9,9,11,4,3,0,0,0,0,11,11,9,10,8,0,9,3,0,11,4,17,0,29,0,11,0,0,0,0,0,0,0,0,0,0,0,0,0,0,0,0,0,0,0,0,0,0,0,0,0,0],"split_type":[0,0,0,0,0,0,0,0,0,0,0,0,0,0,0,0,0,0,0,0,0,0,0,0,0,0,0,0,0,0,0,0,0,0,0,0,0,0,0,0,0,0,0,0,0,0,0,0,0,0,0,0,0,0,0,0,0,0,0,0,0,0,0,0,0,0,0,0,0,0,0],"sum_hessian":[6.322E3,5.572E3,7.5E2,3.25E3,2.322E3,7.29E2,2.1E1,1.5E1,3.235E3,1E0,2.321E3,6.29E2,1E2,1E1,1.1E1,1.4E1,1E0,1.662E3,1.573E3,1.568E3,7.53E2,3.3E2,2.99E2,6.3E1,3.7E1,9E0,1E0,9E0,5E0,2.48E2,1.414E3,1.217E3,3.56E2,1.561E3,7E0,3.02E2,4.51E2,3E0,3.27E2,2.71E2,2.8E1,2.9E1,3.4E1,1.1E1,2.6E1,2.33E2,1.5E1,1.15E3,2.64E2,4.68E2,7.49E2,3.21E2,3.5E1,5E0,1.556E3,6E0,1E0,1E0,3.01E2,4.04E2,4.7E1,3.08E2,1.9E1,2.1E1,2.5E2,9E0,1.9E1,6E0,2.8E1,7E0,1.9E1],"tree_param":{"num_deleted":"0","num_feature":"43","num_nodes":"71","size_leaf_vector":"0"}},{"base_weights":[2.7990771E4,1.5111161E4,1.18323445E5,2.576267E3,3.2570717E4,1.0034298E5,3.0311622E5,-1.3360822E5,2.8695166E3,7.347859E5,3.1953977E4,8.680896E4,1.3861156E5,2.3953183E5,4.7349716E5,-1.435124E5,-3.709154E4,2.059662E2,7.5549233E3,2.3465248E4,4.8067082E4,7.904789E4,1.03190055E5,1.2695734E5,1.6316848E5,1.7877214E5,2.7688478E5,5.2162838E5,1.7463084E5,-2.413995E4,7.471521E2,5.1598496E3,8.997353E3,2.2662375E4,1.4307512E5,3.932845E4,5.348219E4,7.657441E4,1.1151671E5,8.494228E4,1.1262283E5,1.10498766E5,1.3564552E5,2.5297342E5,1.5530333E5,1.1736978E5,1.9830006E5,3.5826747E5,2.2730695E5,3.2733502E4,-2.617647E4,6.231907E2,8.404807E4,3.2298467E3,6.5387285E3,8.609697E3,3.9182316E4,1.18500914E5,2.2267598E4,4.854348E5,5.1097965E4,3.836398E4,9.068113E4,5.088878E4,7.2811305E4,7.469821E4,1.1903221E5,1.489199E5,6.8412484E4,9.211273E4,6.975104E4,1.04949234E5,1.862239E5,9.571167E4,1.3686355E5,1.7649048E5,1.1962309E5,4.0517247E5,1.8661688E5,1.3918466E5,2.5165378E5],"categories":[],"categories_nodes":[],"categories_segments":[],"categories_sizes":[],"default_left":[1,1,1,1,1,1,1,1,1,0,1,1,1,1,1,0,0,1,1,1,1,1,1,1,1,1,1,0,0,1,1,1,1,1,1,1,1,1,1,1,1,1,1,0,0,0,0,1,1,0,0,0,0,0,0,0,0,0,0,0,0,0,0,0,0,0,0,0,0,0,0,0,0,0,0,0,0,0,0,0,0],"id":17,"left_children":[1,3,5,7,9,11,13,15,17,-1,19,21,23,25,27,-1,-1,29,31,33,35,37,39,41,43,45,47,-1,-1,49,51,53,55,57,59,61,63,65,67,69,71,73,75,-1,-1,-1,-1,77,79,-1,-1,-1,-1,-1,-1,-1,-1,-1,-1,-1,-1,-1,-1,-1,-1,-1,-1,-1,-1,-1,-1,-1,-1,-1,-1,-1,-1,-1,-1,-1,-1],"loss_changes":[7.4117137E12,1.2206818E12,2.611099E12,1.3009565E11,9.860376E11,3.6398275E11,6.449319E11,1.3683425E9,4.0458015E10,0E0,3.1756884E11,6.0368617E10,3.3088602E10,7.078701E10,1.6783429E11,0E0,0E0,2.726531E10,4.0128676E9,1.4349376E11,3.5895247E10,2.117573E10,1.969514E10,3.886809E9,9.732096E8,4.3040113E9,4.364147E10,0E0,0E0,6.0689306E9,2.0847643E10,1.1604726E9,8.2280407E9,5.4832464E10,2.90088E11,1.1924374E10,2.1007827E10,1.8750243E10,2.8505702E10,3.285975E8,4.2017358E10,6.7833037E9,3.2551338E10,0E0,0E0,0E0,0E0,4.900651E9,1.2174623E10,0E0,0E0,0E0,0E0,0E0,0E0,0E0,0E0,0E0,0E0,0E0,0E0,0E0,0E0,0E0,0E0,0E0,0E0,0E0,0E0,0E0,0E0,0E0,0E0,0E0,0E0,0E0,0E0,0E0,0E0,0E0,0E0],"parents":[2147483647,0,0,1,1,2,2,3,3,4,4,5,5,6,6,7,7,8,8,10,10,11,11,12,12,13,13,14,14,17,17,18,18,19,19,20,20,21,21,22,22,23,23,24,24,25,25,26,26,29,29,30,30,31,31,32,32,33,33,34,34,35,35,36,36,37,37,38,38,39,39,40,40,41,41,42,42,47,47,48,48],"right_children":[2,4,6,8,10,12,14,16,18,-1,20,22,24,26,28,-1,-1,30,32,34,36,38,40,42,44,46,48,-1,-1,50,52,54,56,58,60,62,64,66,68,70,72,74,76,-1,-1,-1,-1,78,80,-1,-1,-1,-1,-1,-1,-1,-1,-1,-1,-1,-1,-1,-1,-1,-1,-1,-1,-1,-1,-1,-1,-1,-1,-1,-1,-1,-1,-1,-1,-1,-1],"split_conditions":[1.32325E5,1.988E4,3.702525E5,-2.25875E5,-1.177075E5,2.3615E5,6.552E5,5.69905E4,2.4735E3,3.6739293E4,7.07875E4,1.881995E5,3.05775E5,4.95E1,4.5125E4,-7.1756206E3,-1.854577E3,-2.485E4,1.0495E3,1.207005E5,8.98975E4,1.02714E5,2.4E4,2.8E4,1.1E1,4.197675E5,5.25E1,2.608142E4,8.731542E3,-1.4675E5,1.1E4,7.6365E3,6.5E0,-2.1375E4,2.45885E4,7.664616E-1,1.1775E5,5.45E4,1.65E1,5.3709733E-1,1.18774E5,2.756445E5,2.51175E5,1.2648671E4,7.7651665E3,5.8684893E3,9.915003E3,3.484515E5,1.12749E5,1.6366752E3,-1.3088236E3,3.1159534E1,4.202404E3,1.6149234E2,3.2693643E2,4.3048486E2,1.9591158E3,5.925046E3,1.1133799E3,2.427174E4,2.5548982E3,1.9181991E3,4.5340566E3,2.5444392E3,3.6405652E3,3.7349106E3,5.951611E3,7.4459956E3,3.4206243E3,4.605636E3,3.487552E3,5.247462E3,9.311195E3,4.7855835E3,6.8431772E3,8.824524E3,5.981155E3,2.0258623E4,9.330844E3,6.959233E3,1.2582689E4],"split_indices":[9,9,9,6,6,9,9,5,9,0,9,9,9,10,0,0,0,9,5,11,9,11,3,3,13,9,10,0,0,6,0,9,12,8,9,28,3,0,13,28,5,9,9,0,0,0,0,8,29,0,0,0,0,0,0,0,0,0,0,0,0,0,0,0,0,0,0,0,0,0,0,0,0,0,0,0,0,0,0,0,0],"split_type":[0,0,0,0,0,0,0,0,0,0,0,0,0,0,0,0,0,0,0,0,0,0,0,0,0,0,0,0,0,0,0,0,0,0,0,0,0,0,0,0,0,0,0,0,0,0,0,0,0,0,0,0,0,0,0,0,0,0,0,0,0,0,0,0,0,0,0,0,0,0,0,0,0,0,0,0,0,0,0,0,0],"sum_hessian":[6.371E3,5.577E3,7.94E2,3.247E3,2.33E3,7.25E2,6.9E1,6E0,3.241E3,1E0,2.329E3,5.38E2,1.87E2,5.2E1,1.7E1,5E0,1E0,2.067E3,1.174E3,1.527E3,8.02E2,3.69E2,1.69E2,1.31E2,5.6E1,2.2E1,3E1,1.4E1,3E0,4.4E1,2.023E3,4.43E2,7.31E2,1.518E3,9E0,3.1E2,4.92E2,3.46E2,2.3E1,6.1E1,1.08E2,5E1,8.1E1,2E0,5.4E1,7E0,1.5E1,9E0,2.1E1,1E0,4.3E1,2.021E3,2E0,1.86E2,2.57E2,7.23E2,8E0,5E0,1.513E3,1E0,8E0,3.06E2,4E0,4.37E2,5.5E1,3.34E2,1.2E1,1.1E1,1.2E1,3.8E1,2.3E1,1E2,8E0,3.5E1,1.5E1,2E1,6.1E1,6E0,3E0,6E0,1.5E1],"tree_param":{"num_deleted":"0","num_feature":"43","num_nodes":"81","size_leaf_vector":"0"}},{"base_weights":[2.6069262E4,1.3888157E4,1.1115122E5,4.6364067E3,3.3624348E4,1.0091911E5,4.5065138E5,4.259276E3,7.164162E5,2.5631678E4,4.5833332E4,7.994858E4,1.3783833E5,3.2384038E5,5.831216E5,4.0154172E3,1.8791075E5,2.4820016E4,5.50956E4,3.901586E4,5.0748613E4,7.734758E4,1.3509752E5,1.3033689E5,2.2846519E5,3.6285925E5,1.8103453E5,-1.09691336E5,4.315643E3,-1.7610282E3,4.7329894E5,2.0052578E4,2.892285E4,2.8463736E4,1.0815579E5,1.0874823E5,3.8177305E4,4.5169125E4,5.9895418E4,7.493231E4,1.1331569E5,7.202774E4,1.683691E5,1.0506037E5,1.398283E5,-1.3177564E5,-4.3620965E4,7.22814E2,9.228845E3,1.6649468E3,-6.0194766E3,6.8838984E4,1.9507156E4,2.8580113E4,1.1042735E5,1.5338977E4,4.2800777E4,1.6843072E5,2.6249695E4,2.5331977E4,3.916672E4,3.9188625E4,5.1888098E4,4.865833E4,8.075451E4,7.0926055E4,9.633608E4,1.4306422E5,7.334828E4,1.6004633E4,7.7030055E4,2.2127238E5,9.14131E4,8.177054E4,1.15749445E5,1.3260978E5,1.7042338E5],"categories":[],"categories_nodes":[],"categories_segments":[],"categories_sizes":[],"default_left":[1,1,1,1,1,1,1,1,0,1,1,1,1,1,0,1,1,1,1,1,1,1,1,1,0,0,0,1,1,1,0,1,1,1,1,0,1,1,1,1,1,1,1,1,1,0,0,0,0,0,0,0,0,0,0,0,0,0,0,0,0,0,0,0,0,0,0,0,0,0,0,0,0,0,0,0,0],"id":18,"left_children":[1,3,5,7,9,11,13,15,-1,17,19,21,23,25,-1,27,29,31,33,35,37,39,41,43,-1,-1,-1,45,47,49,-1,51,53,55,57,-1,59,61,63,65,67,69,71,73,75,-1,-1,-1,-1,-1,-1,-1,-1,-1,-1,-1,-1,-1,-1,-1,-1,-1,-1,-1,-1,-1,-1,-1,-1,-1,-1,-1,-1,-1,-1,-1,-1],"loss_changes":[6.586802E12,1.01543366E12,2.7196685E12,1.013778E12,1.7203397E11,5.882223E11,1.9753127E11,1.6884613E11,0E0,2.4340791E10,2.1510357E10,6.069787E10,1.5989578E11,1.2319719E10,0E0,1.296163E11,2.7148393E11,1.9918946E10,3.6488053E10,1.3273727E10,1.7912496E10,3.2860275E10,3.1939789E10,4.768609E10,0E0,0E0,0E0,8.84301E9,6.6613092E10,6.8379464E7,0E0,1.1642454E10,1.2515213E10,3.1068836E9,4.0010686E10,0E0,2.7697807E9,8.213201E9,3.1229903E10,3.1668568E10,2.2797713E10,1.2893676E9,3.2698728E10,9.206039E9,1.8478793E10,0E0,0E0,0E0,0E0,0E0,0E0,0E0,0E0,0E0,0E0,0E0,0E0,0E0,0E0,0E0,0E0,0E0,0E0,0E0,0E0,0E0,0E0,0E0,0E0,0E0,0E0,0E0,0E0,0E0,0E0,0E0,0E0],"parents":[2147483647,0,0,1,1,2,2,3,3,4,4,5,5,6,6,7,7,9,9,10,10,11,11,12,12,13,13,15,15,16,16,17,17,18,18,19,19,20,20,21,21,22,22,23,23,27,27,28,28,29,29,31,31,32,32,33,33,34,34,36,36,37,37,38,38,39,39,40,40,41,41,42,42,43,43,44,44],"right_children":[2,4,6,8,10,12,14,16,-1,18,20,22,24,26,-1,28,30,32,34,36,38,40,42,44,-1,-1,-1,46,48,50,-1,52,54,56,58,-1,60,62,64,66,68,70,72,74,76,-1,-1,-1,-1,-1,-1,-1,-1,-1,-1,-1,-1,-1,-1,-1,-1,-1,-1,-1,-1,-1,-1,-1,-1,-1,-1,-1,-1,-1,-1,-1,-1],"split_conditions":[1.31967E5,3.318E4,5.73428E5,2.425E5,7.43095E4,2.2155E5,1.0991795E6,1.25628E5,3.582081E4,7.2563595E-1,9.4349E4,1.464875E5,4.4355E5,5E-1,2.9156082E4,-9.7218E4,4.3865E3,4.8549E4,3.74805E4,7.44745E4,2.73745E4,4.9E4,2.25E3,1.06E3,1.142326E4,1.8142963E4,9.051727E3,3.925E3,3.5495E3,1.25E3,2.3664947E4,3.33995E4,1.52298E5,5.32295E4,2.5E0,5.4374116E3,7.5273E4,1.1235E5,6.75805E4,1.31E5,5.392784E-1,1.546E5,5.740515E-1,2.5105E5,5E-1,-6.588782E3,-2.1810483E3,3.61407E1,4.6144223E2,8.324734E1,-3.0097385E2,3.4419492E3,9.7535785E2,1.4290057E3,5.5213677E3,7.6694885E2,2.1400388E3,8.421536E3,1.3124847E3,1.2665989E3,1.9583359E3,1.9594313E3,2.594405E3,2.4329165E3,4.0377253E3,3.5463027E3,4.816804E3,7.153211E3,3.667414E3,8.002316E2,3.8515027E3,1.1063619E4,4.5706553E3,4.088527E3,5.787472E3,6.6304893E3,8.521169E3],"split_indices":[9,9,9,2,9,9,9,11,0,28,9,7,9,40,0,6,0,9,7,9,29,0,4,0,0,0,0,5,9,0,0,9,11,9,12,0,9,9,3,3,28,7,28,9,16,0,0,0,0,0,0,0,0,0,0,0,0,0,0,0,0,0,0,0,0,0,0,0,0,0,0,0,0,0,0,0,0],"split_type":[0,0,0,0,0,0,0,0,0,0,0,0,0,0,0,0,0,0,0,0,0,0,0,0,0,0,0,0,0,0,0,0,0,0,0,0,0,0,0,0,0,0,0,0,0,0,0,0,0,0,0,0,0,0,0,0,0,0,0,0,0,0,0,0,0,0,0,0,0,0,0,0,0,0,0,0,0],"sum_hessian":[6.356E3,5.561E3,7.95E2,3.787E3,1.774E3,7.73E2,2.2E1,3.786E3,1E0,1.074E3,7E2,4.95E2,2.78E2,1.3E1,9E0,3.782E3,4E0,1.047E3,2.7E1,2.97E2,4.03E2,4.75E2,2E1,2.59E2,1.9E1,9E0,4E0,9E0,3.773E3,3E0,1E0,4.87E2,5.6E2,1.9E1,8E0,2E0,2.95E2,2.54E2,1.49E2,4.48E2,2.7E1,8E0,1.2E1,7.4E1,1.85E2,6E0,3E0,2.18E3,1.593E3,2E0,1E0,4E0,4.83E2,5.59E2,1E0,1.1E1,8E0,4E0,4E0,2.3E1,2.72E2,1.38E2,1.16E2,9.9E1,5E1,3.81E2,6.7E1,1.4E1,1.3E1,1E0,7E0,6E0,6E0,2.6E1,4.8E1,1.54E2,3.1E1],"tree_param":{"num_deleted":"0","num_feature":"43","num_nodes":"77","size_leaf_vector":"0"}},{"base_weights":[2.5294266E4,1.3396965E4,1.07296125E5,4.2923906E3,3.2603355E4,9.6660016E4,4.335745E5,3.9207014E3,6.9850575E5,2.6310062E4,4.6883086E4,8.588358E4,1.8694955E5,3.1861434E5,6.3803806E5,3.7164858E3,1.1249927E5,2.6081953E4,1.5389822E5,4.5562797E4,6.274318E4,7.332081E4,1.078641E5,1.3714825E5,2.0292422E5,7.722287E2,9.604381E3,-2.2573008E4,4.6146647E5,2.1634867E4,3.076019E4,4.30615E4,5.1401164E4,7.903524E4,4.3313957E4,6.648282E4,8.117869E4,9.087796E4,1.1431977E5,2.7875784E5,1.7815834E5,-5.922697E4,1.1346696E3,8.225091E4,9.304432E3,-1.0483838E3,-6.5098062E4,1.8640852E4,3.0499682E4,3.045154E4,1.0766667E5,3.980768E4,4.961911E4,6.302215E4,4.2560684E4,4.0887105E4,1.0106008E5,5.411819E4,2.7097902E4,5.6744312E4,7.331182E4,8.756292E4,6.594477E4,2.5853938E4,9.141453E4,9.314592E4,1.2099289E5,3.3393384E5,1.2368951E5,1.584319E5,2.3010802E5],"categories":[],"categories_nodes":[],"categories_segments":[],"categories_sizes":[],"default_left":[1,1,1,1,1,1,1,1,0,1,1,1,1,0,0,1,1,1,0,1,1,1,1,0,1,1,1,1,0,1,1,1,1,1,1,1,1,1,1,1,1,0,0,0,0,0,0,0,0,0,0,0,0,0,0,0,0,0,0,0,0,0,0,0,0,0,0,0,0,0,0],"id":19,"left_children":[1,3,5,7,9,11,13,15,-1,17,19,21,23,-1,-1,25,27,29,-1,31,33,35,37,-1,39,41,43,45,-1,47,49,51,53,55,57,59,61,63,65,67,69,-1,-1,-1,-1,-1,-1,-1,-1,-1,-1,-1,-1,-1,-1,-1,-1,-1,-1,-1,-1,-1,-1,-1,-1,-1,-1,-1,-1,-1,-1],"loss_changes":[6.1672857E12,9.65645E11,2.7378277E12,9.6436355E11,1.5836945E11,7.3996435E11,3.8434085E11,8.266578E10,0E0,3.1929401E10,8.490713E9,1.8428199E11,3.7405065E10,0E0,0E0,6.48446E10,3.4036725E11,2.5007292E10,0E0,5.1467387E9,8.921809E9,1.8567397E10,1.713478E10,0E0,6.302204E10,5.432387E10,2.6407174E10,5.4237665E9,0E0,1.6311812E10,1.093999E10,5.684855E9,1.2317065E10,1.2672074E10,2.0375511E9,1.2067013E10,1.3968867E10,2.1849702E8,1.3880787E10,6.992449E10,1.2732989E10,0E0,0E0,0E0,0E0,0E0,0E0,0E0,0E0,0E0,0E0,0E0,0E0,0E0,0E0,0E0,0E0,0E0,0E0,0E0,0E0,0E0,0E0,0E0,0E0,0E0,0E0,0E0,0E0,0E0,0E0],"parents":[2147483647,0,0,1,1,2,2,3,3,4,4,5,5,6,6,7,7,9,9,10,10,11,11,12,12,15,15,16,16,17,17,19,19,20,20,21,21,22,22,24,24,25,25,26,26,27,27,29,29,30,30,31,31,32,32,33,33,34,34,35,35,36,36,37,37,38,38,39,39,40,40],"right_children":[2,4,6,8,10,12,14,16,-1,18,20,22,24,-1,-1,26,28,30,-1,32,34,36,38,-1,40,42,44,46,-1,48,50,52,54,56,58,60,62,64,66,68,70,-1,-1,-1,-1,-1,-1,-1,-1,-1,-1,-1,-1,-1,-1,-1,-1,-1,-1,-1,-1,-1,-1,-1,-1,-1,-1,-1,-1,-1,-1],"split_conditions":[1.3132E5,3.318E4,5.68328E5,1.375E5,8.4983E4,3.249995E5,1.1515485E6,1.25628E5,3.492529E4,1.25E5,7.15E4,2.062405E5,5.66055E4,1.5930718E4,3.1901904E4,7.1445E3,1.16235E4,5.369E4,7.694911E3,8.3E3,1.45E1,1.67236E5,1.06E3,6.8574126E3,6.63885E4,-5.282E4,-2.1875E4,1.2987E4,2.3073324E4,1.3254E4,1.45812E5,5E-1,1.5542E4,3.97035E4,1.0035E5,1.25E3,1.545E5,3.575E4,2.23749E5,1.65E1,7.082602E-1,-2.9613484E3,5.673348E1,4.1125454E3,4.652216E2,-5.241919E1,-3.254903E3,9.320426E2,1.5249841E3,1.522577E3,5.3833335E3,1.990384E3,2.4809556E3,3.1511074E3,2.1280342E3,2.0443553E3,5.053004E3,2.7059097E3,1.3548951E3,2.8372156E3,3.665591E3,4.378146E3,3.2972388E3,1.2926969E3,4.5707266E3,4.6572964E3,6.0496445E3,1.6696693E4,6.1844756E3,7.921595E3,1.1505401E4],"split_indices":[9,9,9,4,9,9,9,11,0,4,5,9,11,0,0,9,6,9,0,0,13,9,0,0,11,9,8,0,0,29,11,41,0,11,7,0,4,4,9,13,28,0,0,0,0,0,0,0,0,0,0,0,0,0,0,0,0,0,0,0,0,0,0,0,0,0,0,0,0,0,0],"split_type":[0,0,0,0,0,0,0,0,0,0,0,0,0,0,0,0,0,0,0,0,0,0,0,0,0,0,0,0,0,0,0,0,0,0,0,0,0,0,0,0,0,0,0,0,0,0,0,0,0,0,0,0,0,0,0,0,0,0,0,0,0,0,0,0,0,0,0,0,0,0,0],"sum_hessian":[6.322E3,5.522E3,8E2,3.747E3,1.775E3,7.76E2,2.4E1,3.746E3,1E0,1.234E3,5.41E2,6.95E2,8.1E1,1.7E1,7E0,3.74E3,6E0,1.233E3,1E0,5.03E2,3.8E1,4.45E2,2.5E2,2.2E1,5.9E1,2.494E3,1.246E3,5E0,1E0,6.35E2,5.98E2,3.58E2,1.45E2,1.9E1,1.9E1,2.43E2,2.02E2,7.3E1,1.77E2,1.2E1,4.7E1,1.4E1,2.48E3,4E0,1.242E3,4E0,1E0,4.77E2,1.58E2,5.97E2,1E0,2.44E2,1.14E2,6E1,8.5E1,8E0,1.1E1,1E1,9E0,1.04E2,1.39E2,1.39E2,6.3E1,1E0,7.2E1,4.6E1,1.31E2,8E0,4E0,3.7E1,1E1],"tree_param":{"num_deleted":"0","num_feature":"43","num_nodes":"71","size_leaf_vector":"0"}},{"base_weights":[2.3825686E4,1.2522967E4,1.0322931E5,2.1285425E3,2.7013283E4,9.179334E4,4.111727E5,-1.215179E5,2.3576382E3,6.810431E5,2.6437324E4,7.372761E4,1.3133445E5,3.2912994E5,6.571411E5,-1.4353505E5,-5.165573E4,-4.9139908E2,5.379713E3,1.9881795E4,4.1686156E4,7.072867E4,1.1145068E5,1.1699894E5,1.7690538E5,-6.26145E2,1.11728164E5,3.9505327E3,7.879487E3,1.6466541E4,2.6406271E4,3.4463395E4,4.6436004E4,4.9516133E4,7.2762484E4,1.3483139E5,5.7914664E4,1.0817064E5,1.3080102E5,1.3888683E5,2.1697214E5,-1.6517559E4,-2.0650362E1,3.2802803E3,1.1308014E4,9.779381E4,7.389853E3,1.4144035E4,3.2687584E4,2.3551656E4,3.2695598E4,1.0410824E5,3.3587863E4,2.6953272E5,4.5251797E4,2.2933492E4,5.4508965E4,1.666485E5,7.174822E4,1.5355567E5,4.994519E4,1.3771719E4,6.04456E4,9.541406E4,1.1972203E5,1.12166805E5,1.6381797E5,1.4557208E5,2.626742E5],"categories":[],"categories_nodes":[],"categories_segments":[],"categories_sizes":[],"default_left":[1,1,1,1,1,1,1,1,1,0,1,1,1,0,0,0,0,1,1,1,1,1,1,1,1,1,0,1,1,1,1,1,1,1,1,1,1,1,1,0,1,0,0,0,0,0,0,0,0,0,0,0,0,0,0,0,0,0,0,0,0,0,0,0,0,0,0,0,0],"id":20,"left_children":[1,3,5,7,9,11,13,15,17,-1,19,21,23,-1,-1,-1,-1,25,27,29,31,33,35,37,39,41,-1,43,45,47,49,51,53,55,57,59,61,63,65,-1,67,-1,-1,-1,-1,-1,-1,-1,-1,-1,-1,-1,-1,-1,-1,-1,-1,-1,-1,-1,-1,-1,-1,-1,-1,-1,-1,-1,-1],"loss_changes":[5.689608E12,8.3617645E11,2.7443446E12,9.1895595E10,8.555494E11,5.3535782E11,3.4875323E11,1.8145935E9,2.7804342E10,0E0,2.3088818E11,5.1623494E10,1.34783435E11,0E0,0E0,0E0,0E0,2.5216395E10,5.5671767E9,3.573003E10,2.227739E10,1.7536647E10,3.8504563E10,8.2714296E9,5.3645804E10,1.5991697E10,0E0,4.889344E9,2.4327606E10,3.9772946E10,9.212166E9,1.3576602E10,9.797134E10,4.8551526E9,3.0418928E10,3.206647E10,6.199583E8,5.9648246E9,2.2846636E10,0E0,4.3340268E10,0E0,0E0,0E0,0E0,0E0,0E0,0E0,0E0,0E0,0E0,0E0,0E0,0E0,0E0,0E0,0E0,0E0,0E0,0E0,0E0,0E0,0E0,0E0,0E0,0E0,0E0,0E0,0E0],"parents":[2147483647,0,0,1,1,2,2,3,3,4,4,5,5,6,6,7,7,8,8,10,10,11,11,12,12,17,17,18,18,19,19,20,20,21,21,22,22,23,23,24,24,25,25,27,27,28,28,29,29,30,30,31,31,32,32,33,33,34,34,35,35,36,36,37,37,38,38,40,40],"right_children":[2,4,6,8,10,12,14,16,18,-1,20,22,24,-1,-1,-1,-1,26,28,30,32,34,36,38,40,42,-1,44,46,48,50,52,54,56,58,60,62,64,66,-1,68,-1,-1,-1,-1,-1,-1,-1,-1,-1,-1,-1,-1,-1,-1,-1,-1,-1,-1,-1,-1,-1,-1,-1,-1,-1,-1,-1,-1],"split_conditions":[1.31967E5,1.988E4,5.68328E5,-2.24875E5,-8.34075E4,2.3415E5,1.1529245E6,2.5745E3,3.475E2,3.4052156E4,7.429E4,1.3605E5,3.4775E5,1.6456498E4,3.285706E4,-7.1767524E3,-2.5827866E3,1.1E4,2.875E4,4.92545E4,9.28795E4,3.55E1,5.740515E-1,6.5E0,5E-1,-1.96665E4,5.586408E3,1.0045E4,2.95E4,5.066E3,5.3709733E-1,7.44745E4,9.2924E4,1.389195E5,-1.3925E4,5E-1,1.53532E5,2.7215E5,1.55905E5,6.9443413E3,4.95E1,-8.258779E2,-1.0325181E0,1.6401402E2,5.654007E2,4.889691E3,3.6949265E2,7.072018E2,1.6343793E3,1.1775829E3,1.6347799E3,5.205412E3,1.6793932E3,1.3476636E4,2.2625898E3,1.1466747E3,2.7254482E3,8.332425E3,3.587411E3,7.6777837E3,2.4972595E3,6.8858594E2,3.02228E3,4.770703E3,5.9861016E3,5.6083403E3,8.1908984E3,7.278604E3,1.313371E4],"split_indices":[9,9,9,6,6,9,5,5,9,0,9,8,9,0,0,0,0,0,3,9,9,10,28,26,41,9,0,29,2,0,28,9,9,9,6,35,9,9,8,0,10,0,0,0,0,0,0,0,0,0,0,0,0,0,0,0,0,0,0,0,0,0,0,0,0,0,0,0,0],"split_type":[0,0,0,0,0,0,0,0,0,0,0,0,0,0,0,0,0,0,0,0,0,0,0,0,0,0,0,0,0,0,0,0,0,0,0,0,0,0,0,0,0,0,0,0,0,0,0,0,0,0,0,0,0,0,0,0,0,0,0,0,0,0,0,0,0,0,0,0,0],"sum_hessian":[6.34E3,5.551E3,7.89E2,3.233E3,2.318E3,7.62E2,2.7E1,5E0,3.228E3,1E0,2.317E3,5.25E2,2.37E2,2.2E1,5E0,3E0,2E0,1.662E3,1.566E3,1.622E3,6.95E2,4.89E2,3.6E1,1.83E2,5.4E1,1.661E3,1E0,9.98E2,5.68E2,1.067E3,5.55E2,2.79E2,4.16E2,4.5E1,4.44E2,2.4E1,1.2E1,1.17E2,6.6E1,3E1,2.4E1,6E1,1.601E3,9.16E2,8.2E1,2E0,5.66E2,9.35E2,1.32E2,3.85E2,1.7E2,2E0,2.77E2,1E0,4.15E2,8E0,3.7E1,3E0,4.41E2,1.9E1,5E0,1E0,1.1E1,6E1,5.7E1,4.5E1,2.1E1,1.1E1,1.3E1],"tree_param":{"num_deleted":"0","num_feature":"43","num_nodes":"69","size_leaf_vector":"0"}},{"base_weights":[2.3054178E4,1.2563512E4,9.956192E4,3.900826E3,3.0342178E4,8.962656E4,3.8966612E5,3.5475354E3,6.6401706E5,2.391125E4,4.315421E4,7.700711E4,1.4770472E5,3.1360622E5,5.404478E5,-1.2183932E5,3.781143E3,2.135197E4,3.1569297E4,4.1085188E4,5.8751145E4,6.827884E4,9.638561E4,1.2587529E5,1.7069134E5,3.4468538E5,1.8882053E5,-1.3137866E5,-3.2301664E4,3.5470493E3,1.7803345E5,1.790792E4,2.5254156E4,1.3420906E5,3.0441428E4,3.477236E4,4.607827E4,5.2639758E4,1.4490125E5,5.7779785E4,7.535507E4,1.0360132E5,8.05388E4,1.0818315E5,1.580944E5,1.9662172E5,1.3529845E5,4.7564285E2,7.911162E3,-2.0144878E3,4.4911262E5,6.3159418E4,1.7405521E4,7.320339E4,2.485627E4,2.5109746E4,1.7620384E5,2.8463406E4,4.513755E4,3.3981605E4,8.6705414E4,6.2403656E4,4.331603E4,3.75465E4,8.111961E4,2.6279438E5,1.8005412E4,4.798425E4,6.907583E4,1.3442883E5,7.0468016E4,9.54758E4,1.4659883E5,7.118724E4,1.2873842E5,1.8804042E5,1.02601945E5,1.8035598E5,9.380945E4,1.4495633E5,2.3672112E5],"categories":[],"categories_nodes":[],"categories_segments":[],"categories_sizes":[],"default_left":[1,1,1,1,1,1,1,1,0,1,1,1,1,1,0,1,1,1,1,1,1,1,1,1,1,0,0,0,0,1,1,1,1,1,1,1,1,1,1,1,1,1,1,1,1,1,0,0,0,0,0,0,0,0,0,0,0,0,0,0,0,0,0,0,0,0,0,0,0,0,0,0,0,0,0,0,0,0,0,0,0],"id":21,"left_children":[1,3,5,7,9,11,13,15,-1,17,19,21,23,25,-1,27,29,31,33,35,37,39,41,43,45,-1,-1,-1,-1,47,49,51,53,55,57,59,61,63,65,67,69,71,73,75,77,79,-1,-1,-1,-1,-1,-1,-1,-1,-1,-1,-1,-1,-1,-1,-1,-1,-1,-1,-1,-1,-1,-1,-1,-1,-1,-1,-1,-1,-1,-1,-1,-1,-1,-1,-1],"loss_changes":[5.0849346E12,8.5833895E11,2.167145E12,8.719595E11,1.4941815E11,5.3098263E11,1.17223195E11,1.10244676E11,0E0,2.3197581E10,1.7238983E10,9.659482E10,4.4248072E10,8.60278E9,0E0,1.7351639E9,1.520099E11,1.1858182E10,3.0991057E10,1.5450309E10,2.8700705E10,2.7146584E10,1.3038518E10,2.3368696E10,2.9380313E10,0E0,0E0,0E0,0E0,5.010026E10,2.4494095E11,1.0040459E10,6.326878E9,9.32037E9,7.4650747E9,7.032701E9,1.0780213E10,2.5324585E10,5.510888E10,1.6049373E10,6.2701175E10,2.9675618E10,1.9232195E10,2.546008E9,1.599583E10,3.4053423E10,0E0,0E0,0E0,0E0,0E0,0E0,0E0,0E0,0E0,0E0,0E0,0E0,0E0,0E0,0E0,0E0,0E0,0E0,0E0,0E0,0E0,0E0,0E0,0E0,0E0,0E0,0E0,0E0,0E0,0E0,0E0,0E0,0E0,0E0,0E0],"parents":[2147483647,0,0,1,1,2,2,3,3,4,4,5,5,6,6,7,7,9,9,10,10,11,11,12,12,13,13,15,15,16,16,17,17,18,18,19,19,20,20,21,21,22,22,23,23,24,24,29,29,30,30,31,31,32,32,33,33,34,34,35,35,36,36,37,37,38,38,39,39,40,40,41,41,42,42,43,43,44,44,45,45],"right_children":[2,4,6,8,10,12,14,16,-1,18,20,22,24,26,-1,28,30,32,34,36,38,40,42,44,46,-1,-1,-1,-1,48,50,52,54,56,58,60,62,64,66,68,70,72,74,76,78,80,-1,-1,-1,-1,-1,-1,-1,-1,-1,-1,-1,-1,-1,-1,-1,-1,-1,-1,-1,-1,-1,-1,-1,-1,-1,-1,-1,-1,-1,-1,-1,-1,-1,-1,-1],"split_conditions":[1.345495E5,3.318E4,5.73428E5,2.875E5,8.40695E4,2.82679E5,1.1583625E6,-2.25875E5,3.3200855E4,5.29425E4,1.1775E5,2.12261E5,3.48849E5,4.674E4,2.702239E4,5.69905E4,1.25628E5,5.435E4,5.3007E4,1.02189E5,5E-1,7.75E2,5E-1,4.45E4,2.825E5,1.723427E4,9.441026E3,-6.568933E3,-1.6150833E3,3.805E3,4.3865E3,3.33995E4,5.4535E4,1.075E3,1.305E5,5.25E4,3.75E4,2.73745E4,1.36E5,1.68174E5,7.35E1,5.15E4,1.263795E5,5.995E2,9.74445E4,1.965E5,6.764923E3,2.3782143E1,3.955581E2,-1.0072439E2,2.245563E4,3.157971E3,8.7027606E2,3.6601697E3,1.2428135E3,1.2554873E3,8.810192E3,1.4231703E3,2.2568777E3,1.6990803E3,4.335271E3,3.1201829E3,2.1658015E3,1.8773251E3,4.0559805E3,1.3139719E4,9.002706E2,2.3992126E3,3.4537915E3,6.7214414E3,3.523401E3,4.77379E3,7.3299414E3,3.559362E3,6.4369214E3,9.402021E3,5.130097E3,9.0178E3,4.6904727E3,7.2478164E3,1.1836057E4],"split_indices":[9,9,9,2,9,9,9,6,0,11,3,9,9,0,0,5,11,9,11,9,34,0,14,3,2,0,0,0,0,9,0,9,9,0,3,0,4,29,3,9,6,1,11,5,11,2,0,0,0,0,0,0,0,0,0,0,0,0,0,0,0,0,0,0,0,0,0,0,0,0,0,0,0,0,0,0,0,0,0,0,0],"split_type":[0,0,0,0,0,0,0,0,0,0,0,0,0,0,0,0,0,0,0,0,0,0,0,0,0,0,0,0,0,0,0,0,0,0,0,0,0,0,0,0,0,0,0,0,0,0,0,0,0,0,0,0,0,0,0,0,0,0,0,0,0,0,0,0,0,0,0,0,0,0,0,0,0,0,0,0,0,0,0,0,0],"sum_hessian":[6.336E3,5.573E3,7.63E2,3.748E3,1.825E3,7.39E2,2.4E1,3.747E3,1E0,1.217E3,6.08E2,6.09E2,1.3E2,1.8E1,6E0,6E0,3.741E3,9.15E2,3.02E2,5.4E2,6.8E1,4.23E2,1.86E2,7E1,6E1,1.3E1,5E0,5E0,1E0,3.737E3,4E0,4.89E2,4.26E2,2E0,3E2,2.42E2,2.98E2,6.5E1,3E0,1.74E2,2.49E2,1.24E2,6.2E1,4.8E1,2.2E1,3.2E1,2.8E1,2.194E3,1.543E3,3E0,1E0,4E0,4.85E2,2E0,4.24E2,1E0,1E0,2.67E2,3.3E1,2.4E2,2E0,4E1,2.58E2,4.4E1,2.1E1,1E0,2E0,9.6E1,7.8E1,1.7E1,2.32E2,1.07E2,1.7E1,5.4E1,8E0,1E0,4.7E1,1.5E1,7E0,1.6E1,1.6E1],"tree_param":{"num_deleted":"0","num_feature":"43","num_nodes":"81","size_leaf_vector":"0"}},{"base_weights":[2.1592129E4,1.1792413E4,9.416143E4,1.8013374E3,2.5379021E4,8.4562875E4,3.8579362E5,-9.755439E4,2.1684258E3,6.474166E5,2.4848092E4,7.514172E4,1.500014E5,2.9555778E5,6.072416E5,-1.1304423E5,-3.8313656E4,-7.270417E3,3.0663276E3,1.8574555E4,3.8847152E4,6.2481184E4,9.007964E4,1.3189611E5,1.985827E5,3.3513447E5,1.7983566E5,-9.198775E3,-4.4952355E4,-2.031546E4,-5.5783384E3,1.1591147E3,6.2658105E3,1.7971863E4,1.5772569E5,3.4547953E4,4.6230332E4,1.5643866E5,6.1232434E4,1.6763105E5,8.816451E4,1.1182757E5,1.5971536E5,1.1571255E5,2.2760638E5,1.6407472E5,3.700449E5,2.2328697E4,-2.3902693E4,-6.116733E3,6.7245176E3,1.7232205E4,1.0188712E3,5.8483203E3,5.143789E4,9.5507695E4,1.7630168E4,3.80517E4,4.378848E5,3.328468E4,5.200863E4,4.362837E4,6.4799305E4,2.3220535E4,1.9310453E5,1.6562055E5,6.0159664E4,7.109268E4,1.9812706E5,7.624182E4,9.724392E4,5.382048E4,1.6603412E5,3.5892547E5,1.8320897E5],"categories":[],"categories_nodes":[],"categories_segments":[],"categories_sizes":[],"default_left":[1,1,1,1,1,1,1,1,1,0,1,1,1,1,0,0,1,1,1,1,1,1,1,1,1,1,0,0,0,1,1,1,1,1,1,1,1,1,1,1,1,0,1,0,1,0,0,0,0,0,0,0,0,0,0,0,0,0,0,0,0,0,0,0,0,0,0,0,0,0,0,0,0,0,0],"id":22,"left_children":[1,3,5,7,9,11,13,15,17,-1,19,21,23,25,-1,-1,27,29,31,33,35,37,39,41,43,45,-1,-1,-1,47,49,51,53,55,57,59,61,63,65,67,69,-1,71,-1,73,-1,-1,-1,-1,-1,-1,-1,-1,-1,-1,-1,-1,-1,-1,-1,-1,-1,-1,-1,-1,-1,-1,-1,-1,-1,-1,-1,-1,-1,-1],"loss_changes":[4.5545716E12,7.662339E11,2.1004031E12,1.1889249E11,7.7389156E11,4.4432674E11,3.0010638E11,6.680412E9,2.7507216E10,0E0,2.092647E11,1.1692278E11,5.4728983E10,2.6749174E10,0E0,0E0,3.596334E8,6.111326E9,1.8067143E10,1.35794524E11,2.1859926E10,3.1955354E10,2.9034545E10,2.121977E10,2.898264E10,1.6917987E10,0E0,0E0,0E0,5.428903E9,1.703703E9,4.168393E9,2.0557115E10,4.19512E10,2.1803206E11,8.658026E9,1.0169942E10,1.5054242E10,2.9342958E10,3.578839E9,2.3978574E10,0E0,9.130344E9,0E0,2.7525251E10,0E0,0E0,0E0,0E0,0E0,0E0,0E0,0E0,0E0,0E0,0E0,0E0,0E0,0E0,0E0,0E0,0E0,0E0,0E0,0E0,0E0,0E0,0E0,0E0,0E0,0E0,0E0,0E0,0E0,0E0],"parents":[2147483647,0,0,1,1,2,2,3,3,4,4,5,5,6,6,7,7,8,8,10,10,11,11,12,12,13,13,16,16,17,17,18,18,19,19,20,20,21,21,22,22,23,23,24,24,25,25,29,29,30,30,31,31,32,32,33,33,34,34,35,35,36,36,37,37,38,38,39,39,40,40,42,42,44,44],"right_children":[2,4,6,8,10,12,14,16,18,-1,20,22,24,26,-1,-1,28,30,32,34,36,38,40,42,44,46,-1,-1,-1,48,50,52,54,56,58,60,62,64,66,68,70,-1,72,-1,74,-1,-1,-1,-1,-1,-1,-1,-1,-1,-1,-1,-1,-1,-1,-1,-1,-1,-1,-1,-1,-1,-1,-1,-1,-1,-1,-1,-1,-1,-1],"split_conditions":[1.34524E5,1.988E4,5.73428E5,-9.7218E4,-1.177075E5,3.05775E5,1.1529245E6,5E-1,-6.4575E3,3.2370832E4,7.52725E4,1.882245E5,2.17318E5,4.674E4,3.0362082E4,-5.6522114E3,4.17285E4,-3.33835E4,1.0145E3,1.25628E5,1.09475E5,-1.38075E4,1.89104E5,2.7715E4,4.5E1,6.552E5,8.991783E3,-4.5993878E2,-2.247618E3,1.05E1,5.1E3,-5.8875E3,1.17E4,-2.1375E4,4.8865E3,1.34E5,2.20355E4,1.35E3,1.352495E5,2.5725E4,2.23749E5,5.5913784E3,7.22245E4,5.7856274E3,2.29019E5,8.203736E3,1.8502246E4,1.1164349E3,-1.1951346E3,-3.0583664E2,3.362259E2,8.616103E2,5.094356E1,2.9241602E2,2.5718945E3,4.775385E3,8.815084E2,1.902585E3,2.189424E4,1.664234E3,2.6004314E3,2.1814187E3,3.2399653E3,1.1610267E3,9.655227E3,8.281027E3,3.0079832E3,3.554634E3,9.906354E3,3.812091E3,4.8621963E3,2.6910242E3,8.301706E3,1.7946273E4,9.160448E3],"split_indices":[9,9,9,6,6,9,5,35,9,0,9,9,29,0,0,0,11,6,5,11,9,6,9,0,10,9,0,0,0,13,5,9,0,8,0,3,0,0,9,5,9,0,7,0,29,0,0,0,0,0,0,0,0,0,0,0,0,0,0,0,0,0,0,0,0,0,0,0,0,0,0,0,0,0,0],"split_type":[0,0,0,0,0,0,0,0,0,0,0,0,0,0,0,0,0,0,0,0,0,0,0,0,0,0,0,0,0,0,0,0,0,0,0,0,0,0,0,0,0,0,0,0,0,0,0,0,0,0,0,0,0,0,0,0,0,0,0,0,0,0,0,0,0,0,0,0,0,0,0,0,0,0,0],"sum_hessian":[6.405E3,5.644E3,7.61E2,3.253E3,2.391E3,7.38E2,2.3E1,1.1E1,3.242E3,1E0,2.39E3,6.47E2,9.1E1,1.8E1,5E0,8E0,3E0,2.81E2,2.961E3,1.652E3,7.38E2,3.53E2,2.94E2,6.9E1,2.2E1,1.2E1,6E0,1E0,2E0,3.1E1,2.5E2,1.856E3,1.105E3,1.646E3,6E0,4.7E2,2.68E2,3E0,3.5E2,5E0,2.89E2,4.3E1,2.6E1,7E0,1.5E1,3E0,9E0,2E0,2.9E1,2.4E2,1E1,1.5E1,1.841E3,1.096E3,9E0,6E0,1.64E3,5E0,1E0,4.41E2,2.9E1,2.38E2,3E1,1E0,2E0,2E0,3.48E2,2E0,3E0,1.29E2,1.6E2,2E0,2.4E1,2E0,1.3E1],"tree_param":{"num_deleted":"0","num_feature":"43","num_nodes":"75","size_leaf_vector":"0"}},{"base_weights":[2.0061271E4,1.0716382E4,8.960455E4,2.6599753E3,2.6805895E4,8.2486734E4,4.29082E5,-1.086754E5,2.8712612E3,2.0751799E4,3.747394E4,7.19094E4,1.5666931E5,3.2408225E5,6.3681075E5,-4.457259E4,-1.2540201E5,6.885183E2,7.5634756E3,1.9715957E4,4.236701E4,3.530596E4,5.5720023E4,6.219962E4,9.594879E4,1.2827434E5,1.8747611E5,-2.531069E4,9.6026514E2,1.3367631E5,7.232229E3,1.6052136E4,2.4631283E4,2.43503E4,1.0189492E5,3.0175463E4,3.9728484E4,4.7333113E4,1.358937E5,1.5256078E5,6.1268535E4,8.974462E4,1.25586516E5,7.86954E4,1.3584425E5,1.1951771E5,2.1147553E5,-3.3603246E4,-1.6989266E4,-4.9461E3,1.4765874E3,2.032614E5,-2.7469336E3,5.560415E3,1.0162554E4,1.4910969E4,2.1051354E4,2.3973744E4,7.247154E4,6.948108E4,1.7771242E4,4.343143E4,1.7505753E5,2.5336887E4,3.2434244E4,3.8307957E4,5.484478E4,3.426372E4,7.0726336E4,1.4870531E4,1.9268766E5,4.4440836E4,6.479421E4,1.8519206E5,8.727036E4,8.4051734E4,1.9609744E5,1.5630277E5,1.0552474E5,7.6844984E4,1.7242508E5,1.7260966E5,2.5938244E5],"categories":[],"categories_nodes":[],"categories_segments":[],"categories_sizes":[],"default_left":[1,1,1,1,1,1,1,1,1,1,1,1,1,0,0,0,0,1,1,1,1,1,1,1,1,1,1,1,1,1,1,1,1,1,1,1,1,1,1,0,1,1,1,0,1,1,1,0,0,0,0,0,0,0,0,0,0,0,0,0,0,0,0,0,0,0,0,0,0,0,0,0,0,0,0,0,0,0,0,0,0,0,0],"id":23,"left_children":[1,3,5,7,9,11,13,15,17,19,21,23,25,-1,-1,-1,-1,27,29,31,33,35,37,39,41,43,45,47,49,51,53,55,57,59,61,63,65,67,69,-1,71,73,75,-1,77,79,81,-1,-1,-1,-1,-1,-1,-1,-1,-1,-1,-1,-1,-1,-1,-1,-1,-1,-1,-1,-1,-1,-1,-1,-1,-1,-1,-1,-1,-1,-1,-1,-1,-1,-1,-1,-1],"loss_changes":[4.070502E12,7.159697E11,1.7575271E12,8.6926E10,1.1825329E11,5.599621E11,1.2079307E11,1.9160596E9,3.764401E10,2.5540067E10,2.437782E10,1.4318567E11,5.4680093E10,0E0,0E0,0E0,0E0,1.7757962E10,4.778397E10,1.9882607E10,5.436118E10,1.2369592E10,3.9963967E10,2.9186195E10,2.2195208E10,8.075084E9,4.1594257E10,1.2232591E9,7.5855283E9,2.903742E10,5.65078E9,3.3829028E9,1.3330383E10,1.1235791E10,4.3725103E10,2.2493594E9,4.727472E9,1.714371E10,3.837495E10,0E0,2.411502E10,2.0206977E10,6.844868E10,0E0,9.558426E9,1.6100114E10,9.224454E9,0E0,0E0,0E0,0E0,0E0,0E0,0E0,0E0,0E0,0E0,0E0,0E0,0E0,0E0,0E0,0E0,0E0,0E0,0E0,0E0,0E0,0E0,0E0,0E0,0E0,0E0,0E0,0E0,0E0,0E0,0E0,0E0,0E0,0E0,0E0,0E0],"parents":[2147483647,0,0,1,1,2,2,3,3,4,4,5,5,6,6,7,7,8,8,9,9,10,10,11,11,12,12,17,17,18,18,19,19,20,20,21,21,22,22,23,23,24,24,25,25,26,26,27,27,28,28,29,29,30,30,31,31,32,32,33,33,34,34,35,35,36,36,37,37,38,38,40,40,41,41,42,42,44,44,45,45,46,46],"right_children":[2,4,6,8,10,12,14,16,18,20,22,24,26,-1,-1,-1,-1,28,30,32,34,36,38,40,42,44,46,48,50,52,54,56,58,60,62,64,66,68,70,-1,72,74,76,-1,78,80,82,-1,-1,-1,-1,-1,-1,-1,-1,-1,-1,-1,-1,-1,-1,-1,-1,-1,-1,-1,-1,-1,-1,-1,-1,-1,-1,-1,-1,-1,-1,-1,-1,-1,-1,-1,-1],"split_conditions":[1.345245E5,3.2037E4,6.57816E5,-1.32486E5,7.9775E4,3.2695E5,1.4157235E6,1.25E1,7.913E3,1.305E5,1.1775E5,2.23749E5,1.408E5,1.6204112E4,3.1840537E4,-2.2286296E3,-6.2701006E3,-3.6752E4,-2.1875E4,5.369E4,5E-1,1.01166E5,5E-1,1.352265E5,5E-1,5E-1,1.675E5,-4.44505E4,-7.325E3,1.425E5,2.455E3,1.33725E4,7.664616E-1,1.36E5,3.56175E4,4.7E3,7.12675E4,5E-1,1.95E5,7.628039E3,9.7995E3,-5.2025E3,5E-1,3.93477E3,9E3,4.754455E5,5E-1,-1.6801624E3,-8.494633E2,-2.4730501E2,7.382937E1,1.016307E4,-1.3734668E2,2.7802075E2,5.081277E2,7.4554846E2,1.0525677E3,1.1986873E3,3.623577E3,3.474054E3,8.8856213E2,2.1715715E3,8.752877E3,1.2668444E3,1.6217123E3,1.9153978E3,2.742239E3,1.7131859E3,3.536317E3,7.4352655E2,9.634383E3,2.2220417E3,3.2397107E3,9.259604E3,4.363518E3,4.202587E3,9.804872E3,7.815138E3,5.2762373E3,3.8422493E3,8.621254E3,8.630483E3,1.2969122E4],"split_indices":[9,9,7,6,9,9,9,13,9,3,3,9,6,0,0,0,0,8,8,9,16,9,34,9,16,21,2,9,9,2,6,6,28,3,7,3,6,40,2,0,7,6,41,0,3,9,41,0,0,0,0,0,0,0,0,0,0,0,0,0,0,0,0,0,0,0,0,0,0,0,0,0,0,0,0,0,0,0,0,0,0,0,0],"split_type":[0,0,0,0,0,0,0,0,0,0,0,0,0,0,0,0,0,0,0,0,0,0,0,0,0,0,0,0,0,0,0,0,0,0,0,0,0,0,0,0,0,0,0,0,0,0,0,0,0,0,0,0,0,0,0,0,0,0,0,0,0,0,0,0,0,0,0,0,0,0,0,0,0,0,0,0,0,0,0,0,0,0,0],"sum_hessian":[6.264E3,5.523E3,7.41E2,3.681E3,1.842E3,7.27E2,1.4E1,6E0,3.675E3,1.177E3,6.65E2,6.38E2,8.9E1,1.1E1,3E0,2E0,4E0,2.509E3,1.166E3,1.125E3,5.2E1,5.97E2,6.8E1,4.57E2,1.81E2,4.9E1,4E1,2.5E1,2.484E3,2E0,1.164E3,6.47E2,4.78E2,4.1E1,1.1E1,2.8E2,3.17E2,6.3E1,5E0,3E0,4.54E2,1.53E2,2.8E1,8E0,4.1E1,1.2E1,2.8E1,1.1E1,1.4E1,1.99E2,2.285E3,1E0,1E0,7.43E2,4.21E2,5.3E2,1.17E2,4.73E2,5E0,4E0,3.7E1,7E0,4E0,9.3E1,1.87E2,2.93E2,2.4E1,4.2E1,2.1E1,2E0,3E0,8.1E1,3.73E2,2E0,1.51E2,1.9E1,9E0,2.2E1,1.9E1,8E0,4E0,1.8E1,1E1],"tree_param":{"num_deleted":"0","num_feature":"43","num_nodes":"83","size_leaf_vector":"0"}},{"base_weights":[1.9890123E4,1.0475298E4,8.61386E4,1.0206205E4,5.0498506E5,7.794363E4,3.3345903E5,3.1680303E3,2.5305582E4,6.323455E5,1.2513212E5,6.886782E4,1.3830345E5,2.5188992E5,4.306237E5,-8.517775E4,3.4713477E3,1.882424E4,3.2213152E4,5.4876145E4,8.519501E4,1.0528489E5,1.5395494E5,1.4321431E5,2.8826844E5,-1.0726247E5,-4.153517E4,3.2478147E3,1.7141047E5,1.5964553E4,2.455704E4,2.7503084E4,3.7188E4,5.1067418E4,7.357067E4,8.907487E4,6.0067766E4,1.1726083E5,1.8205672E5,-4.659072E4,-8.1287246E3,2.3383226E2,6.7712144E3,9.212654E2,4.2668362E5,1.5367733E4,4.4524875E4,8.879056E4,2.3615596E4,2.689424E4,6.7263375E4,3.2663902E4,4.675055E4,4.8606598E4,8.975269E4,1.8484712E5,6.6423305E4,1.4079873E5,8.690001E4,4.032556E4,6.5426516E4,9.4491086E4,1.6242117E5,2.4295344E5,1.3972133E5],"categories":[],"categories_nodes":[],"categories_segments":[],"categories_sizes":[],"default_left":[1,1,1,1,1,1,1,1,1,0,0,1,1,1,0,1,1,1,1,1,1,0,1,0,0,0,1,1,1,1,1,1,1,1,1,1,1,1,1,0,0,0,0,0,0,0,0,0,0,0,0,0,0,0,0,0,0,0,0,0,0,0,0,0,0],"id":24,"left_children":[1,3,5,7,9,11,13,15,17,-1,-1,19,21,23,-1,25,27,29,31,33,35,-1,37,-1,-1,-1,39,41,43,45,47,49,51,53,55,57,59,61,63,-1,-1,-1,-1,-1,-1,-1,-1,-1,-1,-1,-1,-1,-1,-1,-1,-1,-1,-1,-1,-1,-1,-1,-1,-1,-1],"loss_changes":[3.9547162E12,7.3391204E11,1.5731403E12,5.899422E11,6.600799E10,4.0955334E11,8.967107E10,1.0180207E11,7.84133E10,0E0,0E0,1.476977E11,3.49531E10,2.1971206E10,0E0,8.074674E9,1.4119417E11,1.4575698E10,1.8964677E10,2.201826E10,2.4481366E10,0E0,4.5677937E10,0E0,0E0,0E0,6.346035E8,4.0055042E10,2.1721349E11,9.747513E9,1.6165749E10,8.89081E9,1.6296837E10,2.4577442E10,3.4646557E10,1.735E10,2.0165427E9,1.6529588E10,5.6287298E10,0E0,0E0,0E0,0E0,0E0,0E0,0E0,0E0,0E0,0E0,0E0,0E0,0E0,0E0,0E0,0E0,0E0,0E0,0E0,0E0,0E0,0E0,0E0,0E0,0E0,0E0],"parents":[2147483647,0,0,1,1,2,2,3,3,4,4,5,5,6,6,7,7,8,8,11,11,12,12,13,13,15,15,16,16,17,17,18,18,19,19,20,20,22,22,26,26,27,27,28,28,29,29,30,30,31,31,32,32,33,33,34,34,35,35,36,36,37,37,38,38],"right_children":[2,4,6,8,10,12,14,16,18,-1,-1,20,22,24,-1,26,28,30,32,34,36,-1,38,-1,-1,-1,40,42,44,46,48,50,52,54,56,58,60,62,64,-1,-1,-1,-1,-1,-1,-1,-1,-1,-1,-1,-1,-1,-1,-1,-1,-1,-1,-1,-1,-1,-1,-1,-1,-1,-1],"split_conditions":[1.3132E5,2.925E5,5.73428E5,3.31415E4,8.6625E3,3.11124E5,1.0991795E6,-7.105E4,6.79995E4,3.1617275E4,6.256606E3,1.881995E5,1.48E4,4.4E1,2.1531186E4,-1.32486E5,1.25628E5,5.3157485E-1,9.4349E4,1.31E5,5E-1,5.2642446E3,2.36E5,7.160716E3,1.4413422E4,-5.3631235E3,1.1664E4,2.3995E3,3.1365E3,1.3175E5,3.34235E4,7.664616E-1,8.2E3,5.015E4,-1.2625E4,1.898E5,2.157E5,3.80629E5,2.825E5,-2.329536E3,-4.0643625E2,1.1691613E1,3.3856073E2,4.606327E1,2.1334182E4,7.6838666E2,2.226244E3,4.4395283E3,1.1807798E3,1.344712E3,3.3631687E3,1.6331952E3,2.3375276E3,2.4303298E3,4.4876343E3,9.242356E3,3.3211653E3,7.039937E3,4.3450005E3,2.016278E3,3.271326E3,4.724554E3,8.1210586E3,1.2147672E4,6.9860664E3],"split_indices":[9,2,9,9,0,9,9,9,9,0,0,9,0,10,0,6,11,28,9,3,35,0,2,0,0,0,5,9,0,3,9,28,0,0,6,9,9,7,2,0,0,0,0,0,0,0,0,0,0,0,0,0,0,0,0,0,0,0,0,0,0,0,0,0,0],"split_type":[0,0,0,0,0,0,0,0,0,0,0,0,0,0,0,0,0,0,0,0,0,0,0,0,0,0,0,0,0,0,0,0,0,0,0,0,0,0,0,0,0,0,0,0,0,0,0,0,0,0,0,0,0,0,0,0,0,0,0,0,0,0,0,0,0],